<?xml version="1.0"?>
<MethodSetup Method="MLP::MLP">
  <GeneralInfo>
    <Info name="TMVA Release" value="4.2.1 [262657]"/>
    <Info name="ROOT Release" value="6.16/00 [397312]"/>
    <Info name="Creator" value="boldrinicoder"/>
    <Info name="Date" value="Mon Jul  8 12:03:54 2019"/>
    <Info name="Host" value="Darwin macitois21.cern.ch 18.2.0 Darwin Kernel Version 18.2.0: Mon Nov 12 20:24:46 PST 2018; root:xnu-4903.231.4~2/RELEASE_X86_64 x86_64"/>
    <Info name="Dir" value="/Users/boldrinicoder/uni/Analisi-Statistica/code/es7"/>
    <Info name="Training events" value="16000"/>
    <Info name="TrainingTime" value="1.02927840e+01"/>
    <Info name="AnalysisType" value="Classification"/>
  </GeneralInfo>
  <Options>
    <Option name="NCycles" modified="Yes">200</Option>
    <Option name="HiddenLayers" modified="Yes">5</Option>
    <Option name="NeuronType" modified="Yes">tanh</Option>
    <Option name="RandomSeed" modified="No">1</Option>
    <Option name="EstimatorType" modified="No">CE</Option>
    <Option name="NeuronInputType" modified="No">sum</Option>
    <Option name="V" modified="Yes">False</Option>
    <Option name="VerbosityLevel" modified="No">Default</Option>
    <Option name="VarTransform" modified="Yes">Gauss</Option>
    <Option name="H" modified="Yes">False</Option>
    <Option name="CreateMVAPdfs" modified="No">False</Option>
    <Option name="IgnoreNegWeightsInTraining" modified="No">False</Option>
    <Option name="TrainingMethod" modified="Yes">BP</Option>
    <Option name="LearningRate" modified="No">2.000000e-02</Option>
    <Option name="DecayRate" modified="No">1.000000e-02</Option>
    <Option name="TestRate" modified="Yes">15</Option>
    <Option name="EpochMonitoring" modified="No">False</Option>
    <Option name="Sampling" modified="No">1.000000e+00</Option>
    <Option name="SamplingEpoch" modified="No">1.000000e+00</Option>
    <Option name="SamplingImportance" modified="No">1.000000e+00</Option>
    <Option name="SamplingTraining" modified="No">True</Option>
    <Option name="SamplingTesting" modified="Yes">True</Option>
    <Option name="ResetStep" modified="No">50</Option>
    <Option name="Tau" modified="No">3.000000e+00</Option>
    <Option name="BPMode" modified="No">sequential</Option>
    <Option name="BatchSize" modified="No">-1</Option>
    <Option name="ConvergenceImprove" modified="Yes">1.000000e-05</Option>
    <Option name="ConvergenceTests" modified="Yes">75</Option>
    <Option name="UseRegulator" modified="No">False</Option>
    <Option name="UpdateLimit" modified="No">10000</Option>
    <Option name="CalculateErrors" modified="No">False</Option>
    <Option name="WeightRange" modified="No">1.000000e+00</Option>
  </Options>
  <Variables NVar="2">
    <Variable VarIndex="0" Expression="x" Label="x" Title="x" Unit="" Internal="x" Type="F" Min="-1.19299424e+00" Max="7.63731432e+00"/>
    <Variable VarIndex="1" Expression="y" Label="y" Title="y" Unit="" Internal="y" Type="F" Min="-1.14008236e+00" Max="7.63404465e+00"/>
  </Variables>
  <Spectators NSpec="0"/>
  <Classes NClass="2">
    <Class Name="Signal" Index="0"/>
    <Class Name="Background" Index="1"/>
  </Classes>
  <Transformations NTransformations="1">
    <Transform Name="Gauss" FlatOrGauss="Gauss">
      <Selection>
        <Input NInputs="2">
          <Input Type="Variable" Label="x" Expression="x"/>
          <Input Type="Variable" Label="y" Expression="y"/>
        </Input>
        <Output NOutputs="2">
          <Output Type="Variable" Label="x" Expression="x"/>
          <Output Type="Variable" Label="y" Expression="y"/>
        </Output>
      </Selection>
      <Variable VarIndex="0">
        <CumulativePDF_cls0>
          <PDF Name="GaussTransform var0 cls0" MinNSmooth="0" MaxNSmooth="0" InterpolMethod="1" KDE_type="0" KDE_iter="1" KDE_border="1" KDE_finefactor="0.0000000000000000e+00">
            <Histogram Name="Cumulative_Var0_cls0_original" NBins="801" XMin="-1.1930942535400391e+00" XMax="1.0661447048187256e+00" HasEquidistantBins="0">
              9.05542518e-04 2.02966435e-03 3.27088218e-03 4.52771271e-03 5.77673689e-03 7.02576106e-03 8.27478524e-03 9.52380989e-03 1.07728336e-02 1.20218582e-02 1.32708820e-02 1.45199066e-02 1.57689303e-02 1.70179550e-02 1.82669796e-02 1.95160024e-02 2.07650270e-02 2.20140517e-02 2.32630763e-02 2.45120991e-02 2.57611237e-02 2.70101484e-02 2.82591730e-02 2.95081958e-02 3.07572205e-02 3.20062451e-02 3.32552679e-02 3.45042944e-02 3.57533172e-02 3.70023437e-02 3.82513665e-02 3.95003892e-02 4.07494158e-02 4.19984385e-02 4.32474613e-02 4.44964878e-02 4.57455106e-02 4.69945371e-02 4.82435599e-02 4.94925827e-02 5.07416092e-02 5.19906320e-02 5.32396547e-02 5.44886813e-02 5.57377040e-02 5.69867305e-02 5.82357533e-02 5.94847761e-02 6.07338026e-02 6.19828254e-02 6.32318482e-02 6.44808710e-02 6.57299012e-02 6.69789240e-02 6.82279468e-02 6.94769695e-02 7.07259923e-02 7.19750226e-02 7.32240453e-02 7.44730681e-02 7.57220909e-02 7.69711137e-02 7.82201439e-02 7.94691667e-02 8.07181895e-02 8.19672123e-02 8.32162350e-02 8.44652578e-02 8.57142881e-02 8.69633108e-02 8.82123336e-02 8.94613564e-02 9.07103792e-02 9.19594094e-02 9.32084322e-02 9.44574550e-02 9.57064778e-02 9.69555005e-02 9.82045308e-02 9.94535536e-02 1.00702576e-01 1.01951599e-01 1.03200622e-01 1.04449652e-01 1.05698675e-01 1.06947698e-01 1.08196720e-01 1.09445743e-01 1.10694766e-01 1.11943796e-01 1.13192819e-01 1.14441842e-01 1.15690865e-01 1.16939887e-01 1.18188918e-01 1.19437940e-01 1.20686963e-01 1.21935986e-01 1.23185009e-01 1.24434039e-01 1.25683054e-01 1.26932085e-01 1.28181115e-01 1.29430130e-01 1.30679160e-01 1.31928176e-01 1.33177206e-01 1.34426236e-01 1.35675251e-01 1.36924282e-01 1.38173297e-01 1.39422327e-01 1.40671358e-01 1.41920373e-01 1.43169403e-01 1.44418418e-01 1.45667449e-01 1.46916479e-01 1.48165494e-01 1.49414524e-01 1.50663540e-01 1.51912570e-01 1.53161585e-01 1.54410616e-01 1.55659646e-01 1.56908661e-01 1.58157691e-01 1.59406707e-01 1.60655737e-01 1.61904767e-01 1.63153782e-01 1.64402813e-01 1.65651828e-01 1.66900858e-01 1.68149889e-01 1.69398904e-01 1.70647934e-01 1.71896949e-01 1.73145980e-01 1.74395010e-01 1.75644025e-01 1.76893055e-01 1.78142071e-01 1.79391101e-01 1.80640131e-01 1.81889147e-01 1.83138177e-01 1.84387192e-01 1.85636222e-01 1.86885253e-01 1.88134268e-01 1.89383298e-01 1.90632313e-01 1.91881344e-01 1.93130374e-01 1.94379389e-01 1.95628420e-01 1.96877435e-01 1.98126465e-01 1.99375495e-01 2.00624511e-01 2.01873541e-01 2.03122556e-01 2.04371586e-01 2.05620602e-01 2.06869632e-01 2.08118662e-01 2.09367678e-01 2.10616708e-01 2.11865723e-01 2.13114753e-01 2.14363784e-01 2.15612799e-01 2.16861829e-01 2.18110844e-01 2.19359875e-01 2.20608905e-01 2.21857920e-01 2.23106951e-01 2.24355966e-01 2.25604996e-01 2.26854026e-01 2.28103042e-01 2.29352072e-01 2.30601087e-01 2.31850117e-01 2.33099148e-01 2.34348163e-01 2.35597193e-01 2.36846209e-01 2.38095239e-01 2.39344269e-01 2.40593284e-01 2.41842315e-01 2.43091330e-01 2.44340360e-01 2.45589390e-01 2.46838406e-01 2.48087436e-01 2.49336451e-01 2.50585467e-01 2.51834512e-01 2.53083527e-01 2.54332542e-01 2.55581588e-01 2.56830603e-01 2.58079618e-01 2.59328663e-01 2.60577679e-01 2.61826694e-01 2.63075709e-01 2.64324754e-01 2.65573770e-01 2.66822785e-01 2.68071830e-01 2.69320846e-01 2.70569861e-01 2.71818906e-01 2.73067921e-01 2.74316937e-01 2.75565952e-01 2.76814997e-01 2.78064013e-01 2.79313028e-01 2.80562073e-01 2.81811088e-01 2.83060104e-01 2.84309119e-01 2.85558164e-01 2.86807179e-01 2.88056195e-01 2.89305240e-01 2.90554255e-01 2.91803271e-01 2.93052316e-01 2.94301331e-01 2.95550346e-01 2.96799362e-01 2.98048407e-01 2.99297422e-01 3.00546438e-01 3.01795483e-01 3.03044498e-01 3.04293513e-01 3.05542558e-01 3.06791574e-01 3.08040589e-01 3.09289604e-01 3.10538650e-01 3.11787665e-01 3.13036680e-01 3.14285725e-01 3.15534741e-01 3.16783756e-01 3.18032801e-01 3.19281816e-01 3.20530832e-01 3.21779847e-01 3.23028892e-01 3.24277908e-01 3.25526923e-01 3.26775968e-01 3.28024983e-01 3.29273999e-01 3.30523014e-01 3.31772059e-01 3.33021075e-01 3.34270090e-01 3.35519135e-01 3.36768150e-01 3.38017166e-01 3.39266211e-01 3.40515226e-01 3.41764241e-01 3.43013257e-01 3.44262302e-01 3.45511317e-01 3.46760333e-01 3.48009378e-01 3.49258393e-01 3.50507408e-01 3.51756454e-01 3.53005469e-01 3.54254484e-01 3.55503500e-01 3.56752545e-01 3.58001560e-01 3.59250575e-01 3.60499620e-01 3.61748636e-01 3.62997651e-01 3.64246696e-01 3.65495712e-01 3.66744727e-01 3.67993742e-01 3.69242787e-01 3.70491803e-01 3.71740818e-01 3.72989863e-01 3.74238878e-01 3.75487894e-01 3.76736939e-01 3.77985954e-01 3.79234970e-01 3.80483985e-01 3.81733030e-01 3.82982045e-01 3.84231061e-01 3.85480106e-01 3.86729121e-01 3.87978137e-01 3.89227152e-01 3.90476197e-01 3.91725212e-01 3.92974228e-01 3.94223273e-01 3.95472288e-01 3.96721303e-01 3.97970349e-01 3.99219364e-01 4.00468379e-01 4.01717395e-01 4.02966440e-01 4.04215455e-01 4.05464470e-01 4.06713516e-01 4.07962531e-01 4.09211546e-01 4.10460591e-01 4.11709607e-01 4.12958622e-01 4.14207637e-01 4.15456682e-01 4.16705698e-01 4.17954713e-01 4.19203758e-01 4.20452774e-01 4.21701789e-01 4.22950834e-01 4.24199849e-01 4.25448865e-01 4.26697880e-01 4.27946925e-01 4.29195940e-01 4.30444956e-01 4.31694001e-01 4.32943016e-01 4.34192032e-01 4.35441047e-01 4.36690092e-01 4.37939107e-01 4.39188123e-01 4.40437168e-01 4.41686183e-01 4.42935199e-01 4.44184244e-01 4.45433259e-01 4.46682274e-01 4.47931290e-01 4.49180335e-01 4.50429350e-01 4.51678365e-01 4.52927411e-01 4.54176426e-01 4.55425441e-01 4.56674486e-01 4.57923502e-01 4.59172517e-01 4.60421532e-01 4.61670578e-01 4.62919593e-01 4.64168608e-01 4.65417653e-01 4.66666669e-01 4.67915684e-01 4.69164729e-01 4.70413744e-01 4.71662760e-01 4.72911775e-01 4.74160820e-01 4.75409836e-01 4.76658851e-01 4.77907896e-01 4.79156911e-01 4.80405927e-01 4.81654972e-01 4.82903987e-01 4.84153003e-01 4.85402018e-01 4.86651063e-01 4.87900078e-01 4.89149094e-01 4.90398139e-01 4.91647154e-01 4.92896169e-01 4.94145185e-01 4.95394230e-01 4.96643245e-01 4.97892261e-01 4.99141306e-01 5.00390291e-01 5.01639366e-01 5.02888381e-01 5.04137397e-01 5.05386412e-01 5.06635427e-01 5.07884443e-01 5.09133518e-01 5.10382533e-01 5.11631548e-01 5.12880564e-01 5.14129579e-01 5.15378594e-01 5.16627610e-01 5.17876685e-01 5.19125700e-01 5.20374715e-01 5.21623731e-01 5.22872746e-01 5.24121761e-01 5.25370777e-01 5.26619852e-01 5.27868867e-01 5.29117882e-01 5.30366898e-01 5.31615913e-01 5.32864928e-01 5.34114003e-01 5.35363019e-01 5.36612034e-01 5.37861049e-01 5.39110065e-01 5.40359080e-01 5.41608095e-01 5.42857170e-01 5.44106185e-01 5.45355201e-01 5.46604216e-01 5.47853231e-01 5.49102247e-01 5.50351262e-01 5.51600337e-01 5.52849352e-01 5.54098368e-01 5.55347383e-01 5.56596398e-01 5.57845414e-01 5.59094429e-01 5.60343504e-01 5.61592519e-01 5.62841535e-01 5.64090550e-01 5.65339565e-01 5.66588581e-01 5.67837656e-01 5.69086671e-01 5.70335686e-01 5.71584702e-01 5.72833717e-01 5.74082732e-01 5.75331748e-01 5.76580822e-01 5.77829838e-01 5.79078853e-01 5.80327868e-01 5.81576884e-01 5.82825899e-01 5.84074914e-01 5.85323989e-01 5.86573005e-01 5.87822020e-01 5.89071035e-01 5.90320051e-01 5.91569066e-01 5.92818081e-01 5.94067156e-01 5.95316172e-01 5.96565187e-01 5.97814202e-01 5.99063218e-01 6.00312233e-01 6.01561308e-01 6.02810323e-01 6.04059339e-01 6.05308354e-01 6.06557369e-01 6.07806385e-01 6.09055400e-01 6.10304475e-01 6.11553490e-01 6.12802505e-01 6.14051521e-01 6.15300536e-01 6.16549551e-01 6.17798567e-01 6.19047642e-01 6.20296657e-01 6.21545672e-01 6.22794688e-01 6.24043703e-01 6.25292718e-01 6.26541793e-01 6.27790809e-01 6.29039824e-01 6.30288839e-01 6.31537855e-01 6.32786870e-01 6.34035885e-01 6.35284960e-01 6.36533976e-01 6.37782991e-01 6.39032006e-01 6.40281022e-01 6.41530037e-01 6.42779052e-01 6.44028127e-01 6.45277143e-01 6.46526158e-01 6.47775173e-01 6.49024189e-01 6.50273204e-01 6.51522219e-01 6.52771294e-01 6.54020309e-01 6.55269325e-01 6.56518340e-01 6.57767355e-01 6.59016371e-01 6.60265446e-01 6.61514461e-01 6.62763476e-01 6.64012492e-01 6.65261507e-01 6.66510522e-01 6.67759538e-01 6.69008613e-01 6.70257628e-01 6.71506643e-01 6.72755659e-01 6.74004674e-01 6.75253689e-01 6.76502705e-01 6.77751780e-01 6.79000795e-01 6.80249810e-01 6.81498826e-01 6.82747841e-01 6.83996856e-01 6.85245931e-01 6.86494946e-01 6.87743962e-01 6.88992977e-01 6.90241992e-01 6.91491008e-01 6.92740023e-01 6.93989098e-01 6.95238113e-01 6.96487129e-01 6.97736144e-01 6.98985159e-01 7.00234175e-01 7.01483190e-01 7.02732265e-01 7.03981280e-01 7.05230296e-01 7.06479311e-01 7.07728326e-01 7.08977342e-01 7.10226357e-01 7.11475432e-01 7.12724447e-01 7.13973463e-01 7.15222478e-01 7.16471493e-01 7.17720509e-01 7.18969584e-01 7.20218599e-01 7.21467614e-01 7.22716630e-01 7.23965645e-01 7.25214660e-01 7.26463675e-01 7.27712750e-01 7.28961766e-01 7.30210781e-01 7.31459796e-01 7.32708812e-01 7.33957827e-01 7.35206842e-01 7.36455917e-01 7.37704933e-01 7.38953948e-01 7.40202963e-01 7.41451979e-01 7.42700994e-01 7.43950009e-01 7.45199084e-01 7.46448100e-01 7.47697115e-01 7.48946130e-01 7.50195146e-01 7.51444161e-01 7.52693236e-01 7.53942251e-01 7.55191267e-01 7.56440282e-01 7.57689297e-01 7.58938313e-01 7.60187328e-01 7.61436403e-01 7.62685418e-01 7.63934433e-01 7.65183449e-01 7.66432464e-01 7.67681479e-01 7.68930495e-01 7.70179570e-01 7.71428585e-01 7.72677600e-01 7.73926616e-01 7.75175631e-01 7.76424646e-01 7.77673721e-01 7.78922737e-01 7.80171752e-01 7.81420767e-01 7.82669783e-01 7.83918798e-01 7.85167813e-01 7.86416888e-01 7.87665904e-01 7.88914919e-01 7.90163934e-01 7.91412950e-01 7.92661965e-01 7.93910980e-01 7.95160055e-01 7.96409070e-01 7.97658086e-01 7.98907101e-01 8.00156116e-01 8.01405132e-01 8.02654147e-01 8.03903222e-01 8.05152237e-01 8.06401253e-01 8.07650268e-01 8.08899283e-01 8.10148299e-01 8.11397374e-01 8.12646389e-01 8.13895404e-01 8.15144420e-01 8.16393435e-01 8.17642450e-01 8.18891466e-01 8.20140541e-01 8.21389556e-01 8.22638571e-01 8.23887587e-01 8.25136602e-01 8.26385617e-01 8.27634633e-01 8.28883708e-01 8.30132723e-01 8.31381738e-01 8.32630754e-01 8.33879769e-01 8.35128784e-01 8.36377859e-01 8.37626874e-01 8.38875890e-01 8.40124905e-01 8.41373920e-01 8.42622936e-01 8.43871951e-01 8.45121026e-01 8.46370041e-01 8.47619057e-01 8.48868072e-01 8.50117087e-01 8.51366103e-01 8.52615118e-01 8.53864193e-01 8.55113208e-01 8.56362224e-01 8.57611239e-01 8.58860254e-01 8.60109270e-01 8.61358285e-01 8.62607360e-01 8.63856375e-01 8.65105391e-01 8.66354406e-01 8.67603421e-01 8.68852437e-01 8.70101511e-01 8.71350527e-01 8.72599542e-01 8.73848557e-01 8.75097573e-01 8.76346588e-01 8.77595603e-01 8.78844678e-01 8.80093694e-01 8.81342709e-01 8.82591724e-01 8.83840740e-01 8.85089755e-01 8.86338770e-01 8.87587845e-01 8.88836861e-01 8.90085876e-01 8.91334891e-01 8.92583907e-01 8.93832922e-01 8.95081997e-01 8.96331012e-01 8.97580028e-01 8.98829043e-01 9.00078058e-01 9.01327074e-01 9.02576089e-01 9.03825164e-01 9.05074179e-01 9.06323195e-01 9.07572210e-01 9.08821225e-01 9.10070240e-01 9.11319256e-01 9.12568331e-01 9.13817346e-01 9.15066361e-01 9.16315377e-01 9.17564392e-01 9.18813407e-01 9.20062423e-01 9.21311498e-01 9.22560513e-01 9.23809528e-01 9.25058544e-01 9.26307559e-01 9.27556574e-01 9.28805649e-01 9.30054665e-01 9.31303680e-01 9.32552695e-01 9.33801711e-01 9.35050726e-01 9.36299741e-01 9.37548816e-01 9.38797832e-01 9.40046847e-01 9.41295862e-01 9.42544878e-01 9.43793893e-01 9.45042908e-01 9.46291983e-01 9.47540998e-01 9.48790014e-01 9.50039029e-01 9.51288044e-01 9.52537060e-01 9.53786075e-01 9.55035150e-01 9.56284165e-01 9.57533181e-01 9.58782196e-01 9.60031211e-01 9.61280227e-01 9.62529302e-01 9.63778317e-01 9.65027332e-01 9.66276348e-01 9.67525363e-01 9.68774378e-01 9.70023394e-01 9.71272469e-01 9.72521484e-01 9.73770499e-01 9.75019515e-01 9.76268530e-01 9.77517545e-01 9.78766561e-01 9.80015635e-01 9.81264651e-01 9.82513666e-01 9.83762681e-01 9.85011697e-01 9.86260712e-01 9.87509787e-01 9.88758802e-01 9.90007818e-01 9.91256833e-01 9.92505848e-01 9.93754864e-01 9.95003879e-01 9.96252954e-01 9.97501969e-01 9.98750985e-01 1.00000000e+00 
            </Histogram>
            <HistogramBinning NBins="801">
              -1.19309425e+00 -1.19299424e+00 -8.90194237e-01 -8.39444995e-01 -8.02698016e-01 -7.81136811e-01 -7.59978473e-01 -7.45720029e-01 -7.30238199e-01 -7.13956952e-01 -6.93223894e-01 -6.86078787e-01 -6.78516865e-01 -6.71101749e-01 -6.61595583e-01 -6.53560102e-01 -6.48396671e-01 -6.37826800e-01 -6.28118277e-01 -6.23798609e-01 -6.17241263e-01 -6.13456368e-01 -6.08920395e-01 -5.98714888e-01 -5.94011664e-01 -5.87728560e-01 -5.79995871e-01 -5.72202444e-01 -5.67231596e-01 -5.59018195e-01 -5.55590212e-01 -5.47951877e-01 -5.43629169e-01 -5.39018452e-01 -5.35128534e-01 -5.31625271e-01 -5.29671669e-01 -5.25528848e-01 -5.20366192e-01 -5.17651498e-01 -5.15197337e-01 -5.12331009e-01 -5.07867217e-01 -5.04398406e-01 -5.03391445e-01 -5.01195312e-01 -4.99277025e-01 -4.97029036e-01 -4.94281292e-01 -4.92206573e-01 -4.88954157e-01 -4.86194909e-01 -4.82134134e-01 -4.78801489e-01 -4.77012485e-01 -4.74073827e-01 -4.72401381e-01 -4.69606519e-01 -4.68169510e-01 -4.64520991e-01 -4.62869287e-01 -4.59726244e-01 -4.57907468e-01 -4.56056327e-01 -4.52731937e-01 -4.49796051e-01 -4.47875977e-01 -4.45480913e-01 -4.42672789e-01 -4.39704388e-01 -4.38348770e-01 -4.37228471e-01 -4.35621560e-01 -4.33102131e-01 -4.31889921e-01 -4.30073351e-01 -4.27777410e-01 -4.25224185e-01 -4.23954576e-01 -4.22466457e-01 -4.20038044e-01 -4.17781800e-01 -4.14980441e-01 -4.12494838e-01 -4.11038190e-01 -4.09507751e-01 -4.07960445e-01 -4.06344652e-01 -4.04495925e-01 -4.03236568e-01 -4.02059972e-01 -3.99199963e-01 -3.96624982e-01 -3.95643592e-01 -3.93918276e-01 -3.91483754e-01 -3.89099032e-01 -3.86555135e-01 -3.84453177e-01 -3.82887751e-01 -3.80952507e-01 -3.78901392e-01 -3.75403970e-01 -3.73178333e-01 -3.71738136e-01 -3.69010359e-01 -3.67317885e-01 -3.66312057e-01 -3.63877177e-01 -3.61796439e-01 -3.59588295e-01 -3.57955933e-01 -3.55377913e-01 -3.53998542e-01 -3.53092670e-01 -3.52131188e-01 -3.50807548e-01 -3.49873364e-01 -3.49202454e-01 -3.47858876e-01 -3.45750660e-01 -3.44603002e-01 -3.43052030e-01 -3.41273069e-01 -3.39869857e-01 -3.38155240e-01 -3.35732788e-01 -3.34405214e-01 -3.31555992e-01 -3.30002815e-01 -3.28039855e-01 -3.26647669e-01 -3.25398982e-01 -3.24289858e-01 -3.22703242e-01 -3.21852595e-01 -3.20046067e-01 -3.18673521e-01 -3.16519648e-01 -3.15679103e-01 -3.14205468e-01 -3.13417017e-01 -3.12185943e-01 -3.11070055e-01 -3.09776992e-01 -3.08309883e-01 -3.06465238e-01 -3.03827077e-01 -3.02282125e-01 -3.01615924e-01 -3.00643086e-01 -2.98822373e-01 -2.97648638e-01 -2.96654522e-01 -2.95257270e-01 -2.93205351e-01 -2.91934133e-01 -2.90219754e-01 -2.88376331e-01 -2.86994278e-01 -2.85134524e-01 -2.84142405e-01 -2.81245381e-01 -2.79874206e-01 -2.78844237e-01 -2.77728349e-01 -2.75920510e-01 -2.75232553e-01 -2.74054796e-01 -2.72503555e-01 -2.71651536e-01 -2.70510674e-01 -2.69773602e-01 -2.68657804e-01 -2.67473340e-01 -2.66391426e-01 -2.65294373e-01 -2.64827818e-01 -2.63931394e-01 -2.63013422e-01 -2.62174606e-01 -2.60888666e-01 -2.59656370e-01 -2.58173853e-01 -2.55852580e-01 -2.54144013e-01 -2.53185183e-01 -2.51270771e-01 -2.50375718e-01 -2.48416469e-01 -2.47301817e-01 -2.45280117e-01 -2.44317785e-01 -2.43506864e-01 -2.42449895e-01 -2.40039110e-01 -2.38779038e-01 -2.37366796e-01 -2.35871658e-01 -2.34150037e-01 -2.32769787e-01 -2.31254429e-01 -2.30134889e-01 -2.29394719e-01 -2.27376878e-01 -2.26209253e-01 -2.24936634e-01 -2.23799795e-01 -2.22708330e-01 -2.21699819e-01 -2.20518067e-01 -2.19339237e-01 -2.17959553e-01 -2.16463342e-01 -2.15321824e-01 -2.14209348e-01 -2.13064194e-01 -2.11292878e-01 -2.10158736e-01 -2.09464341e-01 -2.08641842e-01 -2.07538217e-01 -2.06210494e-01 -2.05117285e-01 -2.03752711e-01 -2.02161714e-01 -2.00971901e-01 -1.98793530e-01 -1.97572485e-01 -1.96257368e-01 -1.95201918e-01 -1.94016293e-01 -1.92413330e-01 -1.90758780e-01 -1.89951926e-01 -1.89395174e-01 -1.88525334e-01 -1.87476188e-01 -1.86110422e-01 -1.84472308e-01 -1.82785362e-01 -1.81705073e-01 -1.79656714e-01 -1.78057745e-01 -1.77166581e-01 -1.76110297e-01 -1.74762428e-01 -1.73260301e-01 -1.70112565e-01 -1.68730021e-01 -1.67548344e-01 -1.67026043e-01 -1.65982500e-01 -1.64663494e-01 -1.63301736e-01 -1.61943570e-01 -1.61069825e-01 -1.59758002e-01 -1.58663943e-01 -1.57791242e-01 -1.56664237e-01 -1.55455887e-01 -1.54558286e-01 -1.53073370e-01 -1.52006269e-01 -1.50124058e-01 -1.49050817e-01 -1.47674307e-01 -1.47064909e-01 -1.45409673e-01 -1.44531071e-01 -1.43700749e-01 -1.42615646e-01 -1.41400680e-01 -1.40068635e-01 -1.38076946e-01 -1.37417212e-01 -1.36290804e-01 -1.35374933e-01 -1.34021342e-01 -1.32393554e-01 -1.30812153e-01 -1.30410463e-01 -1.29355729e-01 -1.28305092e-01 -1.27459794e-01 -1.25987723e-01 -1.24663576e-01 -1.23420149e-01 -1.22315496e-01 -1.21407844e-01 -1.20470829e-01 -1.19474165e-01 -1.18339367e-01 -1.17295437e-01 -1.16537884e-01 -1.16025887e-01 -1.15075722e-01 -1.14312112e-01 -1.13443047e-01 -1.11971870e-01 -1.10460103e-01 -1.09570205e-01 -1.07863165e-01 -1.07211761e-01 -1.06198989e-01 -1.04860112e-01 -1.04287423e-01 -1.03378609e-01 -1.01936951e-01 -1.00176156e-01 -9.90734175e-02 -9.79467779e-02 -9.69225317e-02 -9.56813917e-02 -9.48142484e-02 -9.39553902e-02 -9.31752026e-02 -9.17084664e-02 -9.04806629e-02 -8.95234346e-02 -8.81107971e-02 -8.64148512e-02 -8.55972394e-02 -8.45348462e-02 -8.34002197e-02 -8.23315755e-02 -8.05195495e-02 -7.89969414e-02 -7.83037618e-02 -7.73918778e-02 -7.67757297e-02 -7.50611275e-02 -7.34528825e-02 -7.22165331e-02 -7.12726042e-02 -7.04020485e-02 -6.94521442e-02 -6.79381117e-02 -6.72676861e-02 -6.63540438e-02 -6.51978031e-02 -6.45126775e-02 -6.35707602e-02 -6.27973154e-02 -6.17438890e-02 -6.01753928e-02 -5.89410365e-02 -5.75427711e-02 -5.61668985e-02 -5.48896194e-02 -5.42323813e-02 -5.28154261e-02 -5.19667342e-02 -5.06178141e-02 -4.86370958e-02 -4.77072820e-02 -4.65205237e-02 -4.49113175e-02 -4.42808531e-02 -4.33654934e-02 -4.20485325e-02 -4.09453288e-02 -3.99868526e-02 -3.94278355e-02 -3.84360701e-02 -3.74502353e-02 -3.52779329e-02 -3.37808467e-02 -3.28936391e-02 -3.13639715e-02 -3.02301012e-02 -2.87716873e-02 -2.79579051e-02 -2.59651020e-02 -2.45522987e-02 -2.35613864e-02 -2.26546805e-02 -2.08648387e-02 -1.98682155e-02 -1.81920100e-02 -1.64830033e-02 -1.58475544e-02 -1.48636047e-02 -1.38855670e-02 -1.30809136e-02 -1.20251654e-02 -1.13924993e-02 -1.06230145e-02 -9.58483759e-03 -8.83617532e-03 -8.15508422e-03 -7.56710581e-03 -6.38303068e-03 -5.69711579e-03 -4.11071768e-03 -2.64362921e-03 -1.71638373e-03 -3.89634602e-04 7.12666137e-04 2.03646976e-03 2.71575828e-03 3.79995559e-03 5.18910028e-03 5.84435230e-03 6.89512817e-03 8.33160803e-03 9.85592697e-03 1.11484742e-02 1.21383285e-02 1.27606876e-02 1.37838488e-02 1.45642590e-02 1.59446206e-02 1.70046259e-02 1.82514321e-02 1.99094079e-02 2.07168888e-02 2.21851990e-02 2.31689401e-02 2.39359699e-02 2.56219245e-02 2.69902963e-02 2.81664953e-02 2.91479584e-02 3.00660469e-02 3.10561117e-02 3.19987237e-02 3.39993723e-02 3.46826538e-02 3.54825333e-02 3.64679098e-02 3.75164784e-02 3.86211015e-02 3.98317836e-02 4.14220467e-02 4.25542556e-02 4.35544029e-02 4.59432229e-02 4.72093709e-02 4.81695496e-02 4.90792394e-02 5.04247509e-02 5.19859418e-02 5.30543290e-02 5.43743148e-02 5.53654470e-02 5.66536896e-02 5.81773333e-02 5.88641651e-02 5.99856265e-02 6.12158589e-02 6.26215190e-02 6.37663081e-02 6.47618473e-02 6.61094785e-02 6.76094815e-02 6.85023069e-02 6.99901506e-02 7.10578933e-02 7.18805268e-02 7.28832856e-02 7.37117529e-02 7.46187195e-02 7.52995908e-02 7.63419569e-02 7.72112533e-02 7.83648342e-02 7.97045529e-02 8.07696357e-02 8.13402161e-02 8.22219029e-02 8.31839889e-02 8.48620087e-02 8.57392177e-02 8.67525637e-02 8.83424953e-02 9.11450833e-02 9.22752097e-02 9.27007422e-02 9.42100137e-02 9.56720412e-02 9.65858251e-02 9.80102569e-02 9.93789658e-02 1.00142241e-01 1.00904644e-01 1.02167562e-01 1.03631981e-01 1.04887739e-01 1.05858155e-01 1.06862277e-01 1.07764497e-01 1.09179787e-01 1.10030070e-01 1.10951297e-01 1.11661375e-01 1.13348052e-01 1.14904322e-01 1.16094746e-01 1.17023751e-01 1.17904142e-01 1.19186968e-01 1.20692208e-01 1.21473022e-01 1.22088410e-01 1.22982413e-01 1.23917997e-01 1.25001460e-01 1.26262873e-01 1.27956897e-01 1.28869906e-01 1.30282834e-01 1.31299928e-01 1.32511407e-01 1.33192092e-01 1.34155825e-01 1.35880336e-01 1.36772752e-01 1.37530431e-01 1.39100954e-01 1.40094519e-01 1.42248973e-01 1.43615723e-01 1.45329297e-01 1.46475196e-01 1.47185460e-01 1.48759633e-01 1.50612772e-01 1.51523918e-01 1.52271926e-01 1.53791592e-01 1.55117303e-01 1.56459883e-01 1.57129943e-01 1.58425570e-01 1.60030439e-01 1.61358565e-01 1.62593752e-01 1.63933396e-01 1.65372536e-01 1.66578174e-01 1.67599097e-01 1.69696718e-01 1.71306998e-01 1.72330171e-01 1.73165038e-01 1.74133241e-01 1.75184801e-01 1.75868869e-01 1.77221358e-01 1.78187385e-01 1.79455236e-01 1.80448979e-01 1.81133881e-01 1.82338625e-01 1.83134958e-01 1.85268849e-01 1.86707854e-01 1.87509224e-01 1.89655364e-01 1.90927044e-01 1.93284422e-01 1.94373414e-01 1.95201814e-01 1.96374431e-01 1.96863249e-01 1.97916925e-01 1.99143142e-01 1.99851125e-01 2.01118335e-01 2.02616826e-01 2.03389734e-01 2.04620302e-01 2.05701917e-01 2.06715658e-01 2.07238793e-01 2.08581015e-01 2.09747255e-01 2.11048797e-01 2.12767154e-01 2.14415297e-01 2.15691000e-01 2.17195198e-01 2.18051940e-01 2.19838127e-01 2.21309945e-01 2.22606540e-01 2.23928422e-01 2.24989802e-01 2.25821152e-01 2.27767855e-01 2.29007021e-01 2.30252087e-01 2.32764974e-01 2.33776718e-01 2.34698460e-01 2.35909566e-01 2.37422898e-01 2.38746688e-01 2.40160584e-01 2.41540536e-01 2.42131323e-01 2.43705928e-01 2.45100558e-01 2.46736214e-01 2.47965634e-01 2.49356389e-01 2.50812650e-01 2.51783609e-01 2.53405422e-01 2.54456609e-01 2.55502492e-01 2.56899208e-01 2.58309543e-01 2.59542704e-01 2.60571659e-01 2.61379838e-01 2.62450665e-01 2.63197005e-01 2.64000475e-01 2.65281498e-01 2.66699076e-01 2.68295079e-01 2.69431829e-01 2.70684808e-01 2.71738499e-01 2.73227900e-01 2.74089485e-01 2.75596619e-01 2.76429623e-01 2.78068453e-01 2.79238820e-01 2.80444950e-01 2.81465054e-01 2.82589048e-01 2.84571856e-01 2.85406232e-01 2.86715031e-01 2.87526011e-01 2.88311183e-01 2.89008021e-01 2.90867329e-01 2.92489469e-01 2.94366241e-01 2.95665711e-01 2.98231542e-01 3.00119758e-01 3.02401096e-01 3.03680062e-01 3.04172844e-01 3.05295110e-01 3.06418598e-01 3.08986127e-01 3.09848607e-01 3.11047077e-01 3.12410206e-01 3.13358873e-01 3.15333456e-01 3.17007512e-01 3.18264753e-01 3.19312751e-01 3.20774168e-01 3.22329283e-01 3.23183835e-01 3.25251460e-01 3.26861858e-01 3.28317016e-01 3.29594016e-01 3.31792057e-01 3.33323181e-01 3.34869862e-01 3.36245149e-01 3.37221384e-01 3.38699222e-01 3.39659691e-01 3.40756685e-01 3.42459887e-01 3.43635142e-01 3.44502181e-01 3.45442951e-01 3.47119153e-01 3.48230571e-01 3.49260420e-01 3.50964904e-01 3.53145599e-01 3.54217410e-01 3.56479496e-01 3.57675999e-01 3.59359443e-01 3.60748917e-01 3.62975538e-01 3.64371806e-01 3.65314394e-01 3.67876023e-01 3.70542765e-01 3.72935265e-01 3.74153763e-01 3.76936018e-01 3.78319442e-01 3.81073892e-01 3.82227898e-01 3.83991599e-01 3.85908276e-01 3.88083100e-01 3.89831007e-01 3.91680837e-01 3.93976867e-01 3.95769656e-01 3.96815091e-01 3.99270654e-01 4.01317835e-01 4.02860701e-01 4.04518336e-01 4.06410426e-01 4.08083826e-01 4.09168363e-01 4.11729962e-01 4.13322270e-01 4.15820986e-01 4.16704386e-01 4.18599695e-01 4.20909554e-01 4.22378510e-01 4.24378008e-01 4.26799178e-01 4.28784281e-01 4.30903852e-01 4.33466166e-01 4.35529292e-01 4.36559945e-01 4.40588355e-01 4.42095518e-01 4.43242282e-01 4.44793314e-01 4.48198795e-01 4.52101111e-01 4.56728488e-01 4.60432231e-01 4.63045686e-01 4.65255171e-01 4.67704415e-01 4.68867928e-01 4.70104575e-01 4.72765058e-01 4.74109769e-01 4.76465911e-01 4.80087250e-01 4.83417988e-01 4.85841244e-01 4.87937063e-01 4.90372568e-01 4.92446810e-01 4.94731069e-01 4.98312443e-01 5.00634313e-01 5.03728926e-01 5.06749392e-01 5.08890927e-01 5.14342785e-01 5.17377675e-01 5.19947052e-01 5.24640501e-01 5.27040780e-01 5.31029642e-01 5.34081459e-01 5.37953019e-01 5.41869223e-01 5.46089828e-01 5.50758302e-01 5.56478322e-01 5.60962200e-01 5.64879298e-01 5.69220722e-01 5.76816380e-01 5.81526279e-01 5.84679186e-01 5.94389856e-01 5.99649549e-01 6.05673969e-01 6.11313522e-01 6.18431330e-01 6.23627841e-01 6.32933915e-01 6.39797926e-01 6.50417745e-01 6.57594919e-01 6.65080190e-01 6.76321328e-01 6.86824620e-01 7.02839375e-01 7.11101353e-01 7.19183862e-01 7.25511849e-01 7.39903271e-01 7.55112290e-01 7.66923428e-01 7.77768612e-01 8.03005278e-01 8.39079618e-01 8.87465537e-01 1.06614470e+00 
            </HistogramBinning>
          </PDF>
        </CumulativePDF_cls0>
        <CumulativePDF_cls1>
          <PDF Name="GaussTransform var0 cls1" MinNSmooth="0" MaxNSmooth="0" InterpolMethod="1" KDE_type="0" KDE_iter="1" KDE_border="1" KDE_finefactor="0.0000000000000000e+00">
            <Histogram Name="Cumulative_Var0_cls1_original" NBins="801" XMin="4.3841475248336792e-01" XMax="7.6373143196105957e+00" HasEquidistantBins="0">
              9.05542518e-04 2.02966435e-03 3.27088218e-03 4.52771271e-03 5.77673689e-03 7.02576106e-03 8.27478524e-03 9.52380989e-03 1.07728336e-02 1.20218582e-02 1.32708820e-02 1.45199066e-02 1.57689303e-02 1.70179550e-02 1.82669796e-02 1.95160024e-02 2.07650270e-02 2.20140517e-02 2.32630763e-02 2.45120991e-02 2.57611237e-02 2.70101484e-02 2.82591730e-02 2.95081958e-02 3.07572205e-02 3.20062451e-02 3.32552679e-02 3.45042944e-02 3.57533172e-02 3.70023437e-02 3.82513665e-02 3.95003892e-02 4.07494158e-02 4.19984385e-02 4.32474613e-02 4.44964878e-02 4.57455106e-02 4.69945371e-02 4.82435599e-02 4.94925827e-02 5.07416092e-02 5.19906320e-02 5.32396547e-02 5.44886813e-02 5.57377040e-02 5.69867305e-02 5.82357533e-02 5.94847761e-02 6.07338026e-02 6.19828254e-02 6.32318482e-02 6.44808710e-02 6.57299012e-02 6.69789240e-02 6.82279468e-02 6.94769695e-02 7.07259923e-02 7.19750226e-02 7.32240453e-02 7.44730681e-02 7.57220909e-02 7.69711137e-02 7.82201439e-02 7.94691667e-02 8.07181895e-02 8.19672123e-02 8.32162350e-02 8.44652578e-02 8.57142881e-02 8.69633108e-02 8.82123336e-02 8.94613564e-02 9.07103792e-02 9.19594094e-02 9.32084322e-02 9.44574550e-02 9.57064778e-02 9.69555005e-02 9.82045308e-02 9.94535536e-02 1.00702576e-01 1.01951599e-01 1.03200622e-01 1.04449652e-01 1.05698675e-01 1.06947698e-01 1.08196720e-01 1.09445743e-01 1.10694766e-01 1.11943796e-01 1.13192819e-01 1.14441842e-01 1.15690865e-01 1.16939887e-01 1.18188918e-01 1.19437940e-01 1.20686963e-01 1.21935986e-01 1.23185009e-01 1.24434039e-01 1.25683054e-01 1.26932085e-01 1.28181115e-01 1.29430130e-01 1.30679160e-01 1.31928176e-01 1.33177206e-01 1.34426236e-01 1.35675251e-01 1.36924282e-01 1.38173297e-01 1.39422327e-01 1.40671358e-01 1.41920373e-01 1.43169403e-01 1.44418418e-01 1.45667449e-01 1.46916479e-01 1.48165494e-01 1.49414524e-01 1.50663540e-01 1.51912570e-01 1.53161585e-01 1.54410616e-01 1.55659646e-01 1.56908661e-01 1.58157691e-01 1.59406707e-01 1.60655737e-01 1.61904767e-01 1.63153782e-01 1.64402813e-01 1.65651828e-01 1.66900858e-01 1.68149889e-01 1.69398904e-01 1.70647934e-01 1.71896949e-01 1.73145980e-01 1.74395010e-01 1.75644025e-01 1.76893055e-01 1.78142071e-01 1.79391101e-01 1.80640131e-01 1.81889147e-01 1.83138177e-01 1.84387192e-01 1.85636222e-01 1.86885253e-01 1.88134268e-01 1.89383298e-01 1.90632313e-01 1.91881344e-01 1.93130374e-01 1.94379389e-01 1.95628420e-01 1.96877435e-01 1.98126465e-01 1.99375495e-01 2.00624511e-01 2.01873541e-01 2.03122556e-01 2.04371586e-01 2.05620602e-01 2.06869632e-01 2.08118662e-01 2.09367678e-01 2.10616708e-01 2.11865723e-01 2.13114753e-01 2.14363784e-01 2.15612799e-01 2.16861829e-01 2.18110844e-01 2.19359875e-01 2.20608905e-01 2.21857920e-01 2.23106951e-01 2.24355966e-01 2.25604996e-01 2.26854026e-01 2.28103042e-01 2.29352072e-01 2.30601087e-01 2.31850117e-01 2.33099148e-01 2.34348163e-01 2.35597193e-01 2.36846209e-01 2.38095239e-01 2.39344269e-01 2.40593284e-01 2.41842315e-01 2.43091330e-01 2.44340360e-01 2.45589390e-01 2.46838406e-01 2.48087436e-01 2.49336451e-01 2.50585467e-01 2.51834512e-01 2.53083527e-01 2.54332542e-01 2.55581588e-01 2.56830603e-01 2.58079618e-01 2.59328663e-01 2.60577679e-01 2.61826694e-01 2.63075709e-01 2.64324754e-01 2.65573770e-01 2.66822785e-01 2.68071830e-01 2.69320846e-01 2.70569861e-01 2.71818906e-01 2.73067921e-01 2.74316937e-01 2.75565952e-01 2.76814997e-01 2.78064013e-01 2.79313028e-01 2.80562073e-01 2.81811088e-01 2.83060104e-01 2.84309119e-01 2.85558164e-01 2.86807179e-01 2.88056195e-01 2.89305240e-01 2.90554255e-01 2.91803271e-01 2.93052316e-01 2.94301331e-01 2.95550346e-01 2.96799362e-01 2.98048407e-01 2.99297422e-01 3.00546438e-01 3.01795483e-01 3.03044498e-01 3.04293513e-01 3.05542558e-01 3.06791574e-01 3.08040589e-01 3.09289604e-01 3.10538650e-01 3.11787665e-01 3.13036680e-01 3.14285725e-01 3.15534741e-01 3.16783756e-01 3.18032801e-01 3.19281816e-01 3.20530832e-01 3.21779847e-01 3.23028892e-01 3.24277908e-01 3.25526923e-01 3.26775968e-01 3.28024983e-01 3.29273999e-01 3.30523014e-01 3.31772059e-01 3.33021075e-01 3.34270090e-01 3.35519135e-01 3.36768150e-01 3.38017166e-01 3.39266211e-01 3.40515226e-01 3.41764241e-01 3.43013257e-01 3.44262302e-01 3.45511317e-01 3.46760333e-01 3.48009378e-01 3.49258393e-01 3.50507408e-01 3.51756454e-01 3.53005469e-01 3.54254484e-01 3.55503500e-01 3.56752545e-01 3.58001560e-01 3.59250575e-01 3.60499620e-01 3.61748636e-01 3.62997651e-01 3.64246696e-01 3.65495712e-01 3.66744727e-01 3.67993742e-01 3.69242787e-01 3.70491803e-01 3.71740818e-01 3.72989863e-01 3.74238878e-01 3.75487894e-01 3.76736939e-01 3.77985954e-01 3.79234970e-01 3.80483985e-01 3.81733030e-01 3.82982045e-01 3.84231061e-01 3.85480106e-01 3.86729121e-01 3.87978137e-01 3.89227152e-01 3.90476197e-01 3.91725212e-01 3.92974228e-01 3.94223273e-01 3.95472288e-01 3.96721303e-01 3.97970349e-01 3.99219364e-01 4.00468379e-01 4.01717395e-01 4.02966440e-01 4.04215455e-01 4.05464470e-01 4.06713516e-01 4.07962531e-01 4.09211546e-01 4.10460591e-01 4.11709607e-01 4.12958622e-01 4.14207637e-01 4.15456682e-01 4.16705698e-01 4.17954713e-01 4.19203758e-01 4.20452774e-01 4.21701789e-01 4.22950834e-01 4.24199849e-01 4.25448865e-01 4.26697880e-01 4.27946925e-01 4.29195940e-01 4.30444956e-01 4.31694001e-01 4.32943016e-01 4.34192032e-01 4.35441047e-01 4.36690092e-01 4.37939107e-01 4.39188123e-01 4.40437168e-01 4.41686183e-01 4.42935199e-01 4.44184244e-01 4.45433259e-01 4.46682274e-01 4.47931290e-01 4.49180335e-01 4.50429350e-01 4.51678365e-01 4.52927411e-01 4.54176426e-01 4.55425441e-01 4.56674486e-01 4.57923502e-01 4.59172517e-01 4.60421532e-01 4.61670578e-01 4.62919593e-01 4.64168608e-01 4.65417653e-01 4.66666669e-01 4.67915684e-01 4.69164729e-01 4.70413744e-01 4.71662760e-01 4.72911775e-01 4.74160820e-01 4.75409836e-01 4.76658851e-01 4.77907896e-01 4.79156911e-01 4.80405927e-01 4.81654972e-01 4.82903987e-01 4.84153003e-01 4.85402018e-01 4.86651063e-01 4.87900078e-01 4.89149094e-01 4.90398139e-01 4.91647154e-01 4.92896169e-01 4.94145185e-01 4.95394230e-01 4.96643245e-01 4.97892261e-01 4.99141306e-01 5.00390291e-01 5.01639366e-01 5.02888381e-01 5.04137397e-01 5.05386412e-01 5.06635427e-01 5.07884443e-01 5.09133518e-01 5.10382533e-01 5.11631548e-01 5.12880564e-01 5.14129579e-01 5.15378594e-01 5.16627610e-01 5.17876685e-01 5.19125700e-01 5.20374715e-01 5.21623731e-01 5.22872746e-01 5.24121761e-01 5.25370777e-01 5.26619852e-01 5.27868867e-01 5.29117882e-01 5.30366898e-01 5.31615913e-01 5.32864928e-01 5.34114003e-01 5.35363019e-01 5.36612034e-01 5.37861049e-01 5.39110065e-01 5.40359080e-01 5.41608095e-01 5.42857170e-01 5.44106185e-01 5.45355201e-01 5.46604216e-01 5.47853231e-01 5.49102247e-01 5.50351262e-01 5.51600337e-01 5.52849352e-01 5.54098368e-01 5.55347383e-01 5.56596398e-01 5.57845414e-01 5.59094429e-01 5.60343504e-01 5.61592519e-01 5.62841535e-01 5.64090550e-01 5.65339565e-01 5.66588581e-01 5.67837656e-01 5.69086671e-01 5.70335686e-01 5.71584702e-01 5.72833717e-01 5.74082732e-01 5.75331748e-01 5.76580822e-01 5.77829838e-01 5.79078853e-01 5.80327868e-01 5.81576884e-01 5.82825899e-01 5.84074914e-01 5.85323989e-01 5.86573005e-01 5.87822020e-01 5.89071035e-01 5.90320051e-01 5.91569066e-01 5.92818081e-01 5.94067156e-01 5.95316172e-01 5.96565187e-01 5.97814202e-01 5.99063218e-01 6.00312233e-01 6.01561308e-01 6.02810323e-01 6.04059339e-01 6.05308354e-01 6.06557369e-01 6.07806385e-01 6.09055400e-01 6.10304475e-01 6.11553490e-01 6.12802505e-01 6.14051521e-01 6.15300536e-01 6.16549551e-01 6.17798567e-01 6.19047642e-01 6.20296657e-01 6.21545672e-01 6.22794688e-01 6.24043703e-01 6.25292718e-01 6.26541793e-01 6.27790809e-01 6.29039824e-01 6.30288839e-01 6.31537855e-01 6.32786870e-01 6.34035885e-01 6.35284960e-01 6.36533976e-01 6.37782991e-01 6.39032006e-01 6.40281022e-01 6.41530037e-01 6.42779052e-01 6.44028127e-01 6.45277143e-01 6.46526158e-01 6.47775173e-01 6.49024189e-01 6.50273204e-01 6.51522219e-01 6.52771294e-01 6.54020309e-01 6.55269325e-01 6.56518340e-01 6.57767355e-01 6.59016371e-01 6.60265446e-01 6.61514461e-01 6.62763476e-01 6.64012492e-01 6.65261507e-01 6.66510522e-01 6.67759538e-01 6.69008613e-01 6.70257628e-01 6.71506643e-01 6.72755659e-01 6.74004674e-01 6.75253689e-01 6.76502705e-01 6.77751780e-01 6.79000795e-01 6.80249810e-01 6.81498826e-01 6.82747841e-01 6.83996856e-01 6.85245931e-01 6.86494946e-01 6.87743962e-01 6.88992977e-01 6.90241992e-01 6.91491008e-01 6.92740023e-01 6.93989098e-01 6.95238113e-01 6.96487129e-01 6.97736144e-01 6.98985159e-01 7.00234175e-01 7.01483190e-01 7.02732265e-01 7.03981280e-01 7.05230296e-01 7.06479311e-01 7.07728326e-01 7.08977342e-01 7.10226357e-01 7.11475432e-01 7.12724447e-01 7.13973463e-01 7.15222478e-01 7.16471493e-01 7.17720509e-01 7.18969584e-01 7.20218599e-01 7.21467614e-01 7.22716630e-01 7.23965645e-01 7.25214660e-01 7.26463675e-01 7.27712750e-01 7.28961766e-01 7.30210781e-01 7.31459796e-01 7.32708812e-01 7.33957827e-01 7.35206842e-01 7.36455917e-01 7.37704933e-01 7.38953948e-01 7.40202963e-01 7.41451979e-01 7.42700994e-01 7.43950009e-01 7.45199084e-01 7.46448100e-01 7.47697115e-01 7.48946130e-01 7.50195146e-01 7.51444161e-01 7.52693236e-01 7.53942251e-01 7.55191267e-01 7.56440282e-01 7.57689297e-01 7.58938313e-01 7.60187328e-01 7.61436403e-01 7.62685418e-01 7.63934433e-01 7.65183449e-01 7.66432464e-01 7.67681479e-01 7.68930495e-01 7.70179570e-01 7.71428585e-01 7.72677600e-01 7.73926616e-01 7.75175631e-01 7.76424646e-01 7.77673721e-01 7.78922737e-01 7.80171752e-01 7.81420767e-01 7.82669783e-01 7.83918798e-01 7.85167813e-01 7.86416888e-01 7.87665904e-01 7.88914919e-01 7.90163934e-01 7.91412950e-01 7.92661965e-01 7.93910980e-01 7.95160055e-01 7.96409070e-01 7.97658086e-01 7.98907101e-01 8.00156116e-01 8.01405132e-01 8.02654147e-01 8.03903222e-01 8.05152237e-01 8.06401253e-01 8.07650268e-01 8.08899283e-01 8.10148299e-01 8.11397374e-01 8.12646389e-01 8.13895404e-01 8.15144420e-01 8.16393435e-01 8.17642450e-01 8.18891466e-01 8.20140541e-01 8.21389556e-01 8.22638571e-01 8.23887587e-01 8.25136602e-01 8.26385617e-01 8.27634633e-01 8.28883708e-01 8.30132723e-01 8.31381738e-01 8.32630754e-01 8.33879769e-01 8.35128784e-01 8.36377859e-01 8.37626874e-01 8.38875890e-01 8.40124905e-01 8.41373920e-01 8.42622936e-01 8.43871951e-01 8.45121026e-01 8.46370041e-01 8.47619057e-01 8.48868072e-01 8.50117087e-01 8.51366103e-01 8.52615118e-01 8.53864193e-01 8.55113208e-01 8.56362224e-01 8.57611239e-01 8.58860254e-01 8.60109270e-01 8.61358285e-01 8.62607360e-01 8.63856375e-01 8.65105391e-01 8.66354406e-01 8.67603421e-01 8.68852437e-01 8.70101511e-01 8.71350527e-01 8.72599542e-01 8.73848557e-01 8.75097573e-01 8.76346588e-01 8.77595603e-01 8.78844678e-01 8.80093694e-01 8.81342709e-01 8.82591724e-01 8.83840740e-01 8.85089755e-01 8.86338770e-01 8.87587845e-01 8.88836861e-01 8.90085876e-01 8.91334891e-01 8.92583907e-01 8.93832922e-01 8.95081997e-01 8.96331012e-01 8.97580028e-01 8.98829043e-01 9.00078058e-01 9.01327074e-01 9.02576089e-01 9.03825164e-01 9.05074179e-01 9.06323195e-01 9.07572210e-01 9.08821225e-01 9.10070240e-01 9.11319256e-01 9.12568331e-01 9.13817346e-01 9.15066361e-01 9.16315377e-01 9.17564392e-01 9.18813407e-01 9.20062423e-01 9.21311498e-01 9.22560513e-01 9.23809528e-01 9.25058544e-01 9.26307559e-01 9.27556574e-01 9.28805649e-01 9.30054665e-01 9.31303680e-01 9.32552695e-01 9.33801711e-01 9.35050726e-01 9.36299741e-01 9.37548816e-01 9.38797832e-01 9.40046847e-01 9.41295862e-01 9.42544878e-01 9.43793893e-01 9.45042908e-01 9.46291983e-01 9.47540998e-01 9.48790014e-01 9.50039029e-01 9.51288044e-01 9.52537060e-01 9.53786075e-01 9.55035150e-01 9.56284165e-01 9.57533181e-01 9.58782196e-01 9.60031211e-01 9.61280227e-01 9.62529302e-01 9.63778317e-01 9.65027332e-01 9.66276348e-01 9.67525363e-01 9.68774378e-01 9.70023394e-01 9.71272469e-01 9.72521484e-01 9.73770499e-01 9.75019515e-01 9.76268530e-01 9.77517545e-01 9.78766561e-01 9.80015635e-01 9.81264651e-01 9.82513666e-01 9.83762681e-01 9.85011697e-01 9.86260712e-01 9.87509787e-01 9.88758802e-01 9.90007818e-01 9.91256833e-01 9.92505848e-01 9.93754864e-01 9.95003879e-01 9.96252954e-01 9.97501969e-01 9.98750985e-01 1.00000000e+00 
            </Histogram>
            <HistogramBinning NBins="801">
              4.38414752e-01 4.38514739e-01 9.06866193e-01 1.07351792e+00 1.31484377e+00 1.41708314e+00 1.47534049e+00 1.53951895e+00 1.60042048e+00 1.63248253e+00 1.69566333e+00 1.73798478e+00 1.79347777e+00 1.80960202e+00 1.82494700e+00 1.84020174e+00 1.87215519e+00 1.88564670e+00 1.92439663e+00 1.96078157e+00 1.98515415e+00 1.99520671e+00 2.02095222e+00 2.03249955e+00 2.05917358e+00 2.06415582e+00 2.07572770e+00 2.09722543e+00 2.11539173e+00 2.13497591e+00 2.15488029e+00 2.16616225e+00 2.18473315e+00 2.20113349e+00 2.21622467e+00 2.23291731e+00 2.24199128e+00 2.25190210e+00 2.26851082e+00 2.29399419e+00 2.30877805e+00 2.31794453e+00 2.33487558e+00 2.34138632e+00 2.35075116e+00 2.36664248e+00 2.38046408e+00 2.39034820e+00 2.39799786e+00 2.40677762e+00 2.41468787e+00 2.42579412e+00 2.43548417e+00 2.45041132e+00 2.46023035e+00 2.47344494e+00 2.48775125e+00 2.49874544e+00 2.50382209e+00 2.51455832e+00 2.52764726e+00 2.53485632e+00 2.54055309e+00 2.55053043e+00 2.55929804e+00 2.56888056e+00 2.57842922e+00 2.58752227e+00 2.59732604e+00 2.60516524e+00 2.61738515e+00 2.62416124e+00 2.63376379e+00 2.64661837e+00 2.65427709e+00 2.66573381e+00 2.66875362e+00 2.67708683e+00 2.68709850e+00 2.69471669e+00 2.69977975e+00 2.70837593e+00 2.71351194e+00 2.71918845e+00 2.72745085e+00 2.73731327e+00 2.74429893e+00 2.74981737e+00 2.75709653e+00 2.76087117e+00 2.76638007e+00 2.77038288e+00 2.77495003e+00 2.78147769e+00 2.78482676e+00 2.79167509e+00 2.79822922e+00 2.80474782e+00 2.81274009e+00 2.82575488e+00 2.82974744e+00 2.83518314e+00 2.84221697e+00 2.85361910e+00 2.86144376e+00 2.86631703e+00 2.87151289e+00 2.87971807e+00 2.88577199e+00 2.89015985e+00 2.89595938e+00 2.90281010e+00 2.90766263e+00 2.91354418e+00 2.91898751e+00 2.92749214e+00 2.93406916e+00 2.93796849e+00 2.94525170e+00 2.95014381e+00 2.95558023e+00 2.96326733e+00 2.96714711e+00 2.96974730e+00 2.97384763e+00 2.97892857e+00 2.98406553e+00 2.98622298e+00 2.99027848e+00 2.99508524e+00 3.00036740e+00 3.00557303e+00 3.01197982e+00 3.01527548e+00 3.02167535e+00 3.02716470e+00 3.03215504e+00 3.03725672e+00 3.04327512e+00 3.05022335e+00 3.05369067e+00 3.05874109e+00 3.06228018e+00 3.06688762e+00 3.07237554e+00 3.07653546e+00 3.07992792e+00 3.08338952e+00 3.08819008e+00 3.09241676e+00 3.09697294e+00 3.10048485e+00 3.10389423e+00 3.10813880e+00 3.11330032e+00 3.11722016e+00 3.11966228e+00 3.12530923e+00 3.12766767e+00 3.13521719e+00 3.13906074e+00 3.14181137e+00 3.14608383e+00 3.14995980e+00 3.15309978e+00 3.15719652e+00 3.16114950e+00 3.16601014e+00 3.17013931e+00 3.17401958e+00 3.17936277e+00 3.18260574e+00 3.18605566e+00 3.18961477e+00 3.19352746e+00 3.19629240e+00 3.20342302e+00 3.20939231e+00 3.21923351e+00 3.22274518e+00 3.22732186e+00 3.23043275e+00 3.23448133e+00 3.23936653e+00 3.24287963e+00 3.24722695e+00 3.25159764e+00 3.25390768e+00 3.25673318e+00 3.25983620e+00 3.26414347e+00 3.26832914e+00 3.27314687e+00 3.27551532e+00 3.28076315e+00 3.28427005e+00 3.28783822e+00 3.29060769e+00 3.29466414e+00 3.29940224e+00 3.30326414e+00 3.30762959e+00 3.31327391e+00 3.31841636e+00 3.32116032e+00 3.32285285e+00 3.32692122e+00 3.33189893e+00 3.33438206e+00 3.33814311e+00 3.34219885e+00 3.34614825e+00 3.34835863e+00 3.35432291e+00 3.35686469e+00 3.36127758e+00 3.36417627e+00 3.36531091e+00 3.37021923e+00 3.37491941e+00 3.37796593e+00 3.38115454e+00 3.38493824e+00 3.38722849e+00 3.39083290e+00 3.39590859e+00 3.40001035e+00 3.40524983e+00 3.40980411e+00 3.41350245e+00 3.41664910e+00 3.42118335e+00 3.42338133e+00 3.42799067e+00 3.43095946e+00 3.43254638e+00 3.43719339e+00 3.44321513e+00 3.44902086e+00 3.45279336e+00 3.45507693e+00 3.45794511e+00 3.46171522e+00 3.46733046e+00 3.47053146e+00 3.47458768e+00 3.47997761e+00 3.48331046e+00 3.48572993e+00 3.48820567e+00 3.49203372e+00 3.49590278e+00 3.49918222e+00 3.50344729e+00 3.50622320e+00 3.50958300e+00 3.51278877e+00 3.51891971e+00 3.52210355e+00 3.52489090e+00 3.52855659e+00 3.53197837e+00 3.53415036e+00 3.53886843e+00 3.54146504e+00 3.54584408e+00 3.55215144e+00 3.55525327e+00 3.55766129e+00 3.56148696e+00 3.56514716e+00 3.56966734e+00 3.57578707e+00 3.57975245e+00 3.58336949e+00 3.58505583e+00 3.58828521e+00 3.59073138e+00 3.59393764e+00 3.59863281e+00 3.60124421e+00 3.60385013e+00 3.60640168e+00 3.60969949e+00 3.61359882e+00 3.61628556e+00 3.62032509e+00 3.62149572e+00 3.62668633e+00 3.63226891e+00 3.63530612e+00 3.63958240e+00 3.64345956e+00 3.64633155e+00 3.65049696e+00 3.65475464e+00 3.65888834e+00 3.66271782e+00 3.66671848e+00 3.66973424e+00 3.67236686e+00 3.67619920e+00 3.67980838e+00 3.68343997e+00 3.68623352e+00 3.68942666e+00 3.69294834e+00 3.69583082e+00 3.69956660e+00 3.70292687e+00 3.70480895e+00 3.70690942e+00 3.70971274e+00 3.71722555e+00 3.71975183e+00 3.72246099e+00 3.72538924e+00 3.72692585e+00 3.73041940e+00 3.73529530e+00 3.73736739e+00 3.73880005e+00 3.74028468e+00 3.74419570e+00 3.74842715e+00 3.75150275e+00 3.75456190e+00 3.75762153e+00 3.76035523e+00 3.76490569e+00 3.76749420e+00 3.77170968e+00 3.77461600e+00 3.77786660e+00 3.78116345e+00 3.78434992e+00 3.78640246e+00 3.79093742e+00 3.79444885e+00 3.79782939e+00 3.79939461e+00 3.80247617e+00 3.80661774e+00 3.80875111e+00 3.81188965e+00 3.81507993e+00 3.81625915e+00 3.82011342e+00 3.82405615e+00 3.82838106e+00 3.83154535e+00 3.83475494e+00 3.83757234e+00 3.84046459e+00 3.84372306e+00 3.84780288e+00 3.85388780e+00 3.85658884e+00 3.86145401e+00 3.86530113e+00 3.86790490e+00 3.87158895e+00 3.87312675e+00 3.87777948e+00 3.88194633e+00 3.88473892e+00 3.88824940e+00 3.89135265e+00 3.89300871e+00 3.89807677e+00 3.90270877e+00 3.90454912e+00 3.90857482e+00 3.91080546e+00 3.91340184e+00 3.91666770e+00 3.92119145e+00 3.92380857e+00 3.92565823e+00 3.92879081e+00 3.93166423e+00 3.93423700e+00 3.93737411e+00 3.94107246e+00 3.94370627e+00 3.94754839e+00 3.95058274e+00 3.95250773e+00 3.95520997e+00 3.95748138e+00 3.96124554e+00 3.96498132e+00 3.96824241e+00 3.97034025e+00 3.97385669e+00 3.97816062e+00 3.98069644e+00 3.98294568e+00 3.98501396e+00 3.99055481e+00 3.99402285e+00 3.99719834e+00 4.00009251e+00 4.00300598e+00 4.00502539e+00 4.00761414e+00 4.00983191e+00 4.01324987e+00 4.01669502e+00 4.01881552e+00 4.02101326e+00 4.02415037e+00 4.02799940e+00 4.03067589e+00 4.03502941e+00 4.03851795e+00 4.04143667e+00 4.04673576e+00 4.05006599e+00 4.05364895e+00 4.05623007e+00 4.06045866e+00 4.06240845e+00 4.06518984e+00 4.06694841e+00 4.07087803e+00 4.07286835e+00 4.07553434e+00 4.07984829e+00 4.08257675e+00 4.08478785e+00 4.09013605e+00 4.09436655e+00 4.09595537e+00 4.10073614e+00 4.10674667e+00 4.10924053e+00 4.11426163e+00 4.11698675e+00 4.12005711e+00 4.12343073e+00 4.12507486e+00 4.12879753e+00 4.13116980e+00 4.13272190e+00 4.13388205e+00 4.13821936e+00 4.14244699e+00 4.14677477e+00 4.15075111e+00 4.15345478e+00 4.15575409e+00 4.15869522e+00 4.16075468e+00 4.16285515e+00 4.16607237e+00 4.17307472e+00 4.17678261e+00 4.18034172e+00 4.18364668e+00 4.18571758e+00 4.18752289e+00 4.19069386e+00 4.19412231e+00 4.19717598e+00 4.19970417e+00 4.20287991e+00 4.20760918e+00 4.21257019e+00 4.21663523e+00 4.22011518e+00 4.22231579e+00 4.22519636e+00 4.22853088e+00 4.23384476e+00 4.23690128e+00 4.23983669e+00 4.24210501e+00 4.24609852e+00 4.24752665e+00 4.25069141e+00 4.25675058e+00 4.25965405e+00 4.26414347e+00 4.26795387e+00 4.27133751e+00 4.27703190e+00 4.28183317e+00 4.28476477e+00 4.28858614e+00 4.29326248e+00 4.29597378e+00 4.29985857e+00 4.30345774e+00 4.30694866e+00 4.30930424e+00 4.31234598e+00 4.31580162e+00 4.31985617e+00 4.32160091e+00 4.32578135e+00 4.32822466e+00 4.33111715e+00 4.33581400e+00 4.33876228e+00 4.34363365e+00 4.34634066e+00 4.35103941e+00 4.35301876e+00 4.35566759e+00 4.35848188e+00 4.36250067e+00 4.36712885e+00 4.36986303e+00 4.37295771e+00 4.37794209e+00 4.38108110e+00 4.38458824e+00 4.38857555e+00 4.39105082e+00 4.39558792e+00 4.40106392e+00 4.40435219e+00 4.40824032e+00 4.41134357e+00 4.41384459e+00 4.41633987e+00 4.42106485e+00 4.42509842e+00 4.43039036e+00 4.43380022e+00 4.43638897e+00 4.44091177e+00 4.44455290e+00 4.44713354e+00 4.45086432e+00 4.45387602e+00 4.45658541e+00 4.45899677e+00 4.46177912e+00 4.46501064e+00 4.46785498e+00 4.47016668e+00 4.47302151e+00 4.47597313e+00 4.48147583e+00 4.48679781e+00 4.48990822e+00 4.49385548e+00 4.49680233e+00 4.49937820e+00 4.50531101e+00 4.50808191e+00 4.51126480e+00 4.51798487e+00 4.52061844e+00 4.52422905e+00 4.52741861e+00 4.53199482e+00 4.53398180e+00 4.53687572e+00 4.53993988e+00 4.54235744e+00 4.54407310e+00 4.54956150e+00 4.55300617e+00 4.55692959e+00 4.56141043e+00 4.56723595e+00 4.57137489e+00 4.57446480e+00 4.57696295e+00 4.58010197e+00 4.58335733e+00 4.58661890e+00 4.59123278e+00 4.59457207e+00 4.59797668e+00 4.60057831e+00 4.60310221e+00 4.60743761e+00 4.61420774e+00 4.61689377e+00 4.61916351e+00 4.62245083e+00 4.62488651e+00 4.62849092e+00 4.63041687e+00 4.63288832e+00 4.63690615e+00 4.64192009e+00 4.64413548e+00 4.64890575e+00 4.65270615e+00 4.65604353e+00 4.65900755e+00 4.66426325e+00 4.66998053e+00 4.67282104e+00 4.67640400e+00 4.67914104e+00 4.68375731e+00 4.68687487e+00 4.69145393e+00 4.69515705e+00 4.70100927e+00 4.70409918e+00 4.71241140e+00 4.71593571e+00 4.71856546e+00 4.72316217e+00 4.72602177e+00 4.72864532e+00 4.73108530e+00 4.73437166e+00 4.73850250e+00 4.74447393e+00 4.74727678e+00 4.75323200e+00 4.75629759e+00 4.76022291e+00 4.76288843e+00 4.76656723e+00 4.76971340e+00 4.77389956e+00 4.77790022e+00 4.78260612e+00 4.78935480e+00 4.79118204e+00 4.79445791e+00 4.79935884e+00 4.80399084e+00 4.81067944e+00 4.81597853e+00 4.82027340e+00 4.82851124e+00 4.83291149e+00 4.83718395e+00 4.84025431e+00 4.84757614e+00 4.85196209e+00 4.85471869e+00 4.86060381e+00 4.86399984e+00 4.87358475e+00 4.87777328e+00 4.88301134e+00 4.88718033e+00 4.89117527e+00 4.89553404e+00 4.90027666e+00 4.90414858e+00 4.90861130e+00 4.91173553e+00 4.91584539e+00 4.91869354e+00 4.92307520e+00 4.92727089e+00 4.93170166e+00 4.93404961e+00 4.93953466e+00 4.94397402e+00 4.94962740e+00 4.95133352e+00 4.95569420e+00 4.95795298e+00 4.96130276e+00 4.96773720e+00 4.97413731e+00 4.98105669e+00 4.98946285e+00 4.99427080e+00 4.99857187e+00 5.00480127e+00 5.01077604e+00 5.01562643e+00 5.02031898e+00 5.02745676e+00 5.03842258e+00 5.04327869e+00 5.04996967e+00 5.05647135e+00 5.05993605e+00 5.06907320e+00 5.07470322e+00 5.07747459e+00 5.08257961e+00 5.09067631e+00 5.09359264e+00 5.09654093e+00 5.10377026e+00 5.10864067e+00 5.11504889e+00 5.12028694e+00 5.12404156e+00 5.12952662e+00 5.13444710e+00 5.14021587e+00 5.14437151e+00 5.14970493e+00 5.15609741e+00 5.16169739e+00 5.16813755e+00 5.17846966e+00 5.18552446e+00 5.19182539e+00 5.19786358e+00 5.20326519e+00 5.21006346e+00 5.21891689e+00 5.22310829e+00 5.23162889e+00 5.23364305e+00 5.24147272e+00 5.24808502e+00 5.25928497e+00 5.26610661e+00 5.27167320e+00 5.27983189e+00 5.28307295e+00 5.28736162e+00 5.29329157e+00 5.30190659e+00 5.30905199e+00 5.32177019e+00 5.32579851e+00 5.33234692e+00 5.34180784e+00 5.34772635e+00 5.35897160e+00 5.37001038e+00 5.37828112e+00 5.38819838e+00 5.39624405e+00 5.40323257e+00 5.41543531e+00 5.42416525e+00 5.42749691e+00 5.43739986e+00 5.44741726e+00 5.45746231e+00 5.46587133e+00 5.47243166e+00 5.48305416e+00 5.49252892e+00 5.50360584e+00 5.51289177e+00 5.52309513e+00 5.52917337e+00 5.53281498e+00 5.53835869e+00 5.55282927e+00 5.56203318e+00 5.57381678e+00 5.58460140e+00 5.59651756e+00 5.60535622e+00 5.61364985e+00 5.62120962e+00 5.62827826e+00 5.63977337e+00 5.64599371e+00 5.65869617e+00 5.67254210e+00 5.68770409e+00 5.69371986e+00 5.71457815e+00 5.72326183e+00 5.73570108e+00 5.74773264e+00 5.76661587e+00 5.78352690e+00 5.80197001e+00 5.81415987e+00 5.82593107e+00 5.84403563e+00 5.86141682e+00 5.88595629e+00 5.90090036e+00 5.91848898e+00 5.92867231e+00 5.94946623e+00 5.96107721e+00 5.96999979e+00 5.98759890e+00 6.00940847e+00 6.03569937e+00 6.06996107e+00 6.09151506e+00 6.10442734e+00 6.14686298e+00 6.18243980e+00 6.23327017e+00 6.27626801e+00 6.30602455e+00 6.35479307e+00 6.44573450e+00 6.50073671e+00 6.59714651e+00 6.70365667e+00 6.90375137e+00 7.63731432e+00 
            </HistogramBinning>
          </PDF>
        </CumulativePDF_cls1>
        <CumulativePDF_cls2>
          <PDF Name="GaussTransform var0 cls2" MinNSmooth="0" MaxNSmooth="0" InterpolMethod="1" KDE_type="0" KDE_iter="1" KDE_border="1" KDE_finefactor="0.0000000000000000e+00">
            <Histogram Name="Cumulative_Var0_cls2_original" NBins="1601" XMin="-1.1930942535400391e+00" XMax="7.6373143196105957e+00" HasEquidistantBins="0">
              4.52948065e-04 1.01522845e-03 1.63607963e-03 2.26474041e-03 2.88949627e-03 3.51425214e-03 4.13900800e-03 4.76376433e-03 5.38852019e-03 6.01327606e-03 6.63803192e-03 7.26278778e-03 7.88754411e-03 8.51229951e-03 9.13705584e-03 9.76181217e-03 1.03865676e-02 1.10113239e-02 1.16360793e-02 1.22608356e-02 1.28855919e-02 1.35103473e-02 1.41351037e-02 1.47598591e-02 1.53846154e-02 1.60093717e-02 1.66341271e-02 1.72588825e-02 1.78836398e-02 1.85083952e-02 1.91331506e-02 1.97579078e-02 2.03826632e-02 2.10074186e-02 2.16321740e-02 2.22569313e-02 2.28816867e-02 2.35064421e-02 2.41311993e-02 2.47559547e-02 2.53807101e-02 2.60054674e-02 2.66302228e-02 2.72549782e-02 2.78797336e-02 2.85044909e-02 2.91292462e-02 2.97540016e-02 3.03787589e-02 3.10035143e-02 3.16282697e-02 3.22530270e-02 3.28777805e-02 3.35025378e-02 3.41272950e-02 3.47520486e-02 3.53768058e-02 3.60015631e-02 3.66263166e-02 3.72510739e-02 3.78758311e-02 3.85005847e-02 3.91253419e-02 3.97500992e-02 4.03748527e-02 4.09996100e-02 4.16243672e-02 4.22491208e-02 4.28738780e-02 4.34986316e-02 4.41233888e-02 4.47481461e-02 4.53728996e-02 4.59976569e-02 4.66224141e-02 4.72471677e-02 4.78719249e-02 4.84966822e-02 4.91214357e-02 4.97461930e-02 5.03709503e-02 5.09957038e-02 5.16204610e-02 5.22452183e-02 5.28699718e-02 5.34947291e-02 5.41194864e-02 5.47442399e-02 5.53689972e-02 5.59937507e-02 5.66185080e-02 5.72432652e-02 5.78680187e-02 5.84927760e-02 5.91175333e-02 5.97422868e-02 6.03670441e-02 6.09918013e-02 6.16165549e-02 6.22413121e-02 6.28660694e-02 6.34908229e-02 6.41155764e-02 6.47403374e-02 6.53650910e-02 6.59898445e-02 6.66146055e-02 6.72393590e-02 6.78641126e-02 6.84888735e-02 6.91136271e-02 6.97383806e-02 7.03631416e-02 7.09878951e-02 7.16126487e-02 7.22374097e-02 7.28621632e-02 7.34869167e-02 7.41116777e-02 7.47364312e-02 7.53611848e-02 7.59859458e-02 7.66106993e-02 7.72354528e-02 7.78602138e-02 7.84849674e-02 7.91097209e-02 7.97344819e-02 8.03592354e-02 8.09839889e-02 8.16087499e-02 8.22335035e-02 8.28582570e-02 8.34830180e-02 8.41077715e-02 8.47325251e-02 8.53572860e-02 8.59820396e-02 8.66067931e-02 8.72315466e-02 8.78563076e-02 8.84810612e-02 8.91058147e-02 8.97305757e-02 9.03553292e-02 9.09800828e-02 9.16048437e-02 9.22295973e-02 9.28543508e-02 9.34791118e-02 9.41038653e-02 9.47286189e-02 9.53533798e-02 9.59781334e-02 9.66028869e-02 9.72276479e-02 9.78524014e-02 9.84771550e-02 9.91019160e-02 9.97266695e-02 1.00351423e-01 1.00976184e-01 1.01600938e-01 1.02225691e-01 1.02850452e-01 1.03475206e-01 1.04099959e-01 1.04724720e-01 1.05349474e-01 1.05974227e-01 1.06598988e-01 1.07223742e-01 1.07848495e-01 1.08473256e-01 1.09098010e-01 1.09722763e-01 1.10347517e-01 1.10972278e-01 1.11597031e-01 1.12221785e-01 1.12846546e-01 1.13471299e-01 1.14096053e-01 1.14720814e-01 1.15345567e-01 1.15970321e-01 1.16595082e-01 1.17219836e-01 1.17844589e-01 1.18469350e-01 1.19094104e-01 1.19718857e-01 1.20343618e-01 1.20968372e-01 1.21593125e-01 1.22217886e-01 1.22842640e-01 1.23467393e-01 1.24092154e-01 1.24716908e-01 1.25341669e-01 1.25966415e-01 1.26591176e-01 1.27215937e-01 1.27840683e-01 1.28465444e-01 1.29090205e-01 1.29714951e-01 1.30339712e-01 1.30964473e-01 1.31589219e-01 1.32213980e-01 1.32838741e-01 1.33463487e-01 1.34088248e-01 1.34713009e-01 1.35337755e-01 1.35962516e-01 1.36587277e-01 1.37212023e-01 1.37836784e-01 1.38461545e-01 1.39086291e-01 1.39711052e-01 1.40335813e-01 1.40960559e-01 1.41585320e-01 1.42210081e-01 1.42834827e-01 1.43459588e-01 1.44084349e-01 1.44709095e-01 1.45333856e-01 1.45958617e-01 1.46583363e-01 1.47208124e-01 1.47832870e-01 1.48457631e-01 1.49082392e-01 1.49707139e-01 1.50331900e-01 1.50956661e-01 1.51581407e-01 1.52206168e-01 1.52830929e-01 1.53455675e-01 1.54080436e-01 1.54705197e-01 1.55329943e-01 1.55954704e-01 1.56579465e-01 1.57204211e-01 1.57828972e-01 1.58453733e-01 1.59078479e-01 1.59703240e-01 1.60328001e-01 1.60952747e-01 1.61577508e-01 1.62202269e-01 1.62827015e-01 1.63451776e-01 1.64076537e-01 1.64701283e-01 1.65326044e-01 1.65950805e-01 1.66575551e-01 1.67200312e-01 1.67825073e-01 1.68449819e-01 1.69074580e-01 1.69699341e-01 1.70324087e-01 1.70948848e-01 1.71573609e-01 1.72198355e-01 1.72823116e-01 1.73447877e-01 1.74072623e-01 1.74697384e-01 1.75322145e-01 1.75946891e-01 1.76571652e-01 1.77196413e-01 1.77821159e-01 1.78445920e-01 1.79070681e-01 1.79695427e-01 1.80320188e-01 1.80944949e-01 1.81569695e-01 1.82194456e-01 1.82819217e-01 1.83443964e-01 1.84068725e-01 1.84693485e-01 1.85318232e-01 1.85942993e-01 1.86567754e-01 1.87192500e-01 1.87817261e-01 1.88442022e-01 1.89066768e-01 1.89691529e-01 1.90316290e-01 1.90941036e-01 1.91565797e-01 1.92190558e-01 1.92815304e-01 1.93440065e-01 1.94064826e-01 1.94689572e-01 1.95314333e-01 1.95939079e-01 1.96563840e-01 1.97188601e-01 1.97813347e-01 1.98438108e-01 1.99062869e-01 1.99687615e-01 2.00312376e-01 2.00937137e-01 2.01561883e-01 2.02186644e-01 2.02811405e-01 2.03436151e-01 2.04060912e-01 2.04685673e-01 2.05310419e-01 2.05935180e-01 2.06559941e-01 2.07184687e-01 2.07809448e-01 2.08434209e-01 2.09058955e-01 2.09683716e-01 2.10308477e-01 2.10933223e-01 2.11557984e-01 2.12182745e-01 2.12807491e-01 2.13432252e-01 2.14057013e-01 2.14681759e-01 2.15306520e-01 2.15931281e-01 2.16556028e-01 2.17180789e-01 2.17805550e-01 2.18430296e-01 2.19055057e-01 2.19679818e-01 2.20304564e-01 2.20929325e-01 2.21554086e-01 2.22178832e-01 2.22803593e-01 2.23428354e-01 2.24053100e-01 2.24677861e-01 2.25302622e-01 2.25927368e-01 2.26552129e-01 2.27176890e-01 2.27801636e-01 2.28426397e-01 2.29051158e-01 2.29675904e-01 2.30300665e-01 2.30925426e-01 2.31550172e-01 2.32174933e-01 2.32799694e-01 2.33424440e-01 2.34049201e-01 2.34673962e-01 2.35298708e-01 2.35923469e-01 2.36548230e-01 2.37172976e-01 2.37797737e-01 2.38422498e-01 2.39047244e-01 2.39672005e-01 2.40296766e-01 2.40921512e-01 2.41546273e-01 2.42171034e-01 2.42795780e-01 2.43420541e-01 2.44045287e-01 2.44670048e-01 2.45294809e-01 2.45919555e-01 2.46544316e-01 2.47169077e-01 2.47793823e-01 2.48418584e-01 2.49043345e-01 2.49668092e-01 2.50292867e-01 2.50917614e-01 2.51542360e-01 2.52167135e-01 2.52791882e-01 2.53416628e-01 2.54041404e-01 2.54666150e-01 2.55290896e-01 2.55915672e-01 2.56540418e-01 2.57165164e-01 2.57789940e-01 2.58414686e-01 2.59039432e-01 2.59664208e-01 2.60288954e-01 2.60913700e-01 2.61538476e-01 2.62163222e-01 2.62787968e-01 2.63412744e-01 2.64037490e-01 2.64662236e-01 2.65287012e-01 2.65911758e-01 2.66536504e-01 2.67161280e-01 2.67786026e-01 2.68410772e-01 2.69035518e-01 2.69660294e-01 2.70285040e-01 2.70909786e-01 2.71534562e-01 2.72159308e-01 2.72784054e-01 2.73408830e-01 2.74033576e-01 2.74658322e-01 2.75283098e-01 2.75907844e-01 2.76532590e-01 2.77157366e-01 2.77782112e-01 2.78406858e-01 2.79031634e-01 2.79656380e-01 2.80281126e-01 2.80905902e-01 2.81530648e-01 2.82155395e-01 2.82780170e-01 2.83404917e-01 2.84029663e-01 2.84654438e-01 2.85279185e-01 2.85903931e-01 2.86528707e-01 2.87153453e-01 2.87778199e-01 2.88402975e-01 2.89027721e-01 2.89652467e-01 2.90277243e-01 2.90901989e-01 2.91526735e-01 2.92151511e-01 2.92776257e-01 2.93401003e-01 2.94025779e-01 2.94650525e-01 2.95275271e-01 2.95900047e-01 2.96524793e-01 2.97149539e-01 2.97774315e-01 2.98399061e-01 2.99023807e-01 2.99648583e-01 3.00273329e-01 3.00898075e-01 3.01522851e-01 3.02147597e-01 3.02772343e-01 3.03397119e-01 3.04021865e-01 3.04646611e-01 3.05271387e-01 3.05896133e-01 3.06520879e-01 3.07145655e-01 3.07770401e-01 3.08395147e-01 3.09019923e-01 3.09644669e-01 3.10269415e-01 3.10894191e-01 3.11518937e-01 3.12143683e-01 3.12768459e-01 3.13393205e-01 3.14017951e-01 3.14642727e-01 3.15267473e-01 3.15892220e-01 3.16516995e-01 3.17141742e-01 3.17766488e-01 3.18391263e-01 3.19016010e-01 3.19640756e-01 3.20265532e-01 3.20890278e-01 3.21515024e-01 3.22139800e-01 3.22764546e-01 3.23389292e-01 3.24014068e-01 3.24638814e-01 3.25263560e-01 3.25888336e-01 3.26513082e-01 3.27137828e-01 3.27762604e-01 3.28387350e-01 3.29012096e-01 3.29636872e-01 3.30261618e-01 3.30886364e-01 3.31511140e-01 3.32135886e-01 3.32760632e-01 3.33385408e-01 3.34010154e-01 3.34634900e-01 3.35259676e-01 3.35884422e-01 3.36509168e-01 3.37133944e-01 3.37758690e-01 3.38383436e-01 3.39008212e-01 3.39632958e-01 3.40257704e-01 3.40882480e-01 3.41507226e-01 3.42131972e-01 3.42756748e-01 3.43381494e-01 3.44006240e-01 3.44631016e-01 3.45255762e-01 3.45880508e-01 3.46505284e-01 3.47130030e-01 3.47754776e-01 3.48379552e-01 3.49004298e-01 3.49629045e-01 3.50253820e-01 3.50878567e-01 3.51503313e-01 3.52128088e-01 3.52752835e-01 3.53377581e-01 3.54002357e-01 3.54627103e-01 3.55251849e-01 3.55876625e-01 3.56501371e-01 3.57126117e-01 3.57750893e-01 3.58375639e-01 3.59000385e-01 3.59625161e-01 3.60249907e-01 3.60874653e-01 3.61499429e-01 3.62124175e-01 3.62748921e-01 3.63373697e-01 3.63998443e-01 3.64623189e-01 3.65247965e-01 3.65872711e-01 3.66497457e-01 3.67122203e-01 3.67746979e-01 3.68371725e-01 3.68996471e-01 3.69621247e-01 3.70245993e-01 3.70870739e-01 3.71495515e-01 3.72120261e-01 3.72745007e-01 3.73369783e-01 3.73994529e-01 3.74619275e-01 3.75244051e-01 3.75868797e-01 3.76493543e-01 3.77118319e-01 3.77743065e-01 3.78367811e-01 3.78992587e-01 3.79617333e-01 3.80242079e-01 3.80866855e-01 3.81491601e-01 3.82116348e-01 3.82741123e-01 3.83365870e-01 3.83990616e-01 3.84615391e-01 3.85240138e-01 3.85864884e-01 3.86489660e-01 3.87114406e-01 3.87739152e-01 3.88363928e-01 3.88988674e-01 3.89613420e-01 3.90238196e-01 3.90862942e-01 3.91487688e-01 3.92112464e-01 3.92737210e-01 3.93361956e-01 3.93986732e-01 3.94611478e-01 3.95236224e-01 3.95861000e-01 3.96485746e-01 3.97110492e-01 3.97735268e-01 3.98360014e-01 3.98984760e-01 3.99609536e-01 4.00234282e-01 4.00859028e-01 4.01483804e-01 4.02108550e-01 4.02733296e-01 4.03358072e-01 4.03982818e-01 4.04607564e-01 4.05232340e-01 4.05857086e-01 4.06481832e-01 4.07106608e-01 4.07731354e-01 4.08356100e-01 4.08980876e-01 4.09605622e-01 4.10230368e-01 4.10855144e-01 4.11479890e-01 4.12104636e-01 4.12729412e-01 4.13354158e-01 4.13978904e-01 4.14603680e-01 4.15228426e-01 4.15853173e-01 4.16477948e-01 4.17102695e-01 4.17727441e-01 4.18352216e-01 4.18976963e-01 4.19601709e-01 4.20226485e-01 4.20851231e-01 4.21475977e-01 4.22100753e-01 4.22725499e-01 4.23350245e-01 4.23975021e-01 4.24599767e-01 4.25224513e-01 4.25849289e-01 4.26474035e-01 4.27098781e-01 4.27723557e-01 4.28348303e-01 4.28973049e-01 4.29597825e-01 4.30222571e-01 4.30847317e-01 4.31472093e-01 4.32096839e-01 4.32721585e-01 4.33346361e-01 4.33971107e-01 4.34595853e-01 4.35220629e-01 4.35845375e-01 4.36470121e-01 4.37094897e-01 4.37719643e-01 4.38344389e-01 4.38969165e-01 4.39593911e-01 4.40218657e-01 4.40843433e-01 4.41468179e-01 4.42092925e-01 4.42717701e-01 4.43342447e-01 4.43967193e-01 4.44591969e-01 4.45216715e-01 4.45841461e-01 4.46466237e-01 4.47090983e-01 4.47715729e-01 4.48340505e-01 4.48965251e-01 4.49589998e-01 4.50214773e-01 4.50839520e-01 4.51464266e-01 4.52089041e-01 4.52713788e-01 4.53338534e-01 4.53963310e-01 4.54588056e-01 4.55212802e-01 4.55837578e-01 4.56462324e-01 4.57087070e-01 4.57711846e-01 4.58336592e-01 4.58961338e-01 4.59586114e-01 4.60210860e-01 4.60835606e-01 4.61460382e-01 4.62085128e-01 4.62709874e-01 4.63334650e-01 4.63959396e-01 4.64584142e-01 4.65208888e-01 4.65833664e-01 4.66458410e-01 4.67083156e-01 4.67707932e-01 4.68332678e-01 4.68957424e-01 4.69582200e-01 4.70206946e-01 4.70831692e-01 4.71456468e-01 4.72081214e-01 4.72705960e-01 4.73330736e-01 4.73955482e-01 4.74580228e-01 4.75205004e-01 4.75829750e-01 4.76454496e-01 4.77079272e-01 4.77704018e-01 4.78328764e-01 4.78953540e-01 4.79578286e-01 4.80203032e-01 4.80827808e-01 4.81452554e-01 4.82077301e-01 4.82702076e-01 4.83326823e-01 4.83951569e-01 4.84576344e-01 4.85201091e-01 4.85825837e-01 4.86450613e-01 4.87075359e-01 4.87700105e-01 4.88324881e-01 4.88949627e-01 4.89574373e-01 4.90199149e-01 4.90823895e-01 4.91448641e-01 4.92073417e-01 4.92698163e-01 4.93322909e-01 4.93947685e-01 4.94572431e-01 4.95197177e-01 4.95821953e-01 4.96446699e-01 4.97071445e-01 4.97696221e-01 4.98320967e-01 4.98945713e-01 4.99570489e-01 5.00195265e-01 5.00819981e-01 5.01444757e-01 5.02069533e-01 5.02694249e-01 5.03319025e-01 5.03943801e-01 5.04568517e-01 5.05193293e-01 5.05818069e-01 5.06442785e-01 5.07067561e-01 5.07692337e-01 5.08317053e-01 5.08941829e-01 5.09566605e-01 5.10191321e-01 5.10816097e-01 5.11440873e-01 5.12065589e-01 5.12690365e-01 5.13315082e-01 5.13939857e-01 5.14564633e-01 5.15189350e-01 5.15814126e-01 5.16438901e-01 5.17063618e-01 5.17688394e-01 5.18313169e-01 5.18937886e-01 5.19562662e-01 5.20187438e-01 5.20812154e-01 5.21436930e-01 5.22061706e-01 5.22686422e-01 5.23311198e-01 5.23935974e-01 5.24560690e-01 5.25185466e-01 5.25810242e-01 5.26434958e-01 5.27059734e-01 5.27684510e-01 5.28309226e-01 5.28934002e-01 5.29558778e-01 5.30183494e-01 5.30808270e-01 5.31433046e-01 5.32057762e-01 5.32682538e-01 5.33307314e-01 5.33932030e-01 5.34556806e-01 5.35181582e-01 5.35806298e-01 5.36431074e-01 5.37055850e-01 5.37680566e-01 5.38305342e-01 5.38930118e-01 5.39554834e-01 5.40179610e-01 5.40804386e-01 5.41429102e-01 5.42053878e-01 5.42678654e-01 5.43303370e-01 5.43928146e-01 5.44552922e-01 5.45177639e-01 5.45802414e-01 5.46427190e-01 5.47051907e-01 5.47676682e-01 5.48301458e-01 5.48926175e-01 5.49550951e-01 5.50175726e-01 5.50800443e-01 5.51425219e-01 5.52049994e-01 5.52674711e-01 5.53299487e-01 5.53924263e-01 5.54548979e-01 5.55173755e-01 5.55798531e-01 5.56423247e-01 5.57048023e-01 5.57672799e-01 5.58297515e-01 5.58922291e-01 5.59547067e-01 5.60171783e-01 5.60796559e-01 5.61421335e-01 5.62046051e-01 5.62670827e-01 5.63295603e-01 5.63920319e-01 5.64545095e-01 5.65169871e-01 5.65794587e-01 5.66419363e-01 5.67044139e-01 5.67668855e-01 5.68293631e-01 5.68918407e-01 5.69543123e-01 5.70167899e-01 5.70792675e-01 5.71417391e-01 5.72042167e-01 5.72666943e-01 5.73291659e-01 5.73916435e-01 5.74541211e-01 5.75165927e-01 5.75790703e-01 5.76415479e-01 5.77040195e-01 5.77664971e-01 5.78289747e-01 5.78914464e-01 5.79539239e-01 5.80164015e-01 5.80788732e-01 5.81413507e-01 5.82038283e-01 5.82663000e-01 5.83287776e-01 5.83912551e-01 5.84537268e-01 5.85162044e-01 5.85786819e-01 5.86411536e-01 5.87036312e-01 5.87661088e-01 5.88285804e-01 5.88910580e-01 5.89535356e-01 5.90160072e-01 5.90784848e-01 5.91409624e-01 5.92034340e-01 5.92659116e-01 5.93283892e-01 5.93908608e-01 5.94533384e-01 5.95158160e-01 5.95782876e-01 5.96407652e-01 5.97032428e-01 5.97657144e-01 5.98281920e-01 5.98906696e-01 5.99531412e-01 6.00156188e-01 6.00780964e-01 6.01405680e-01 6.02030456e-01 6.02655232e-01 6.03279948e-01 6.03904724e-01 6.04529500e-01 6.05154216e-01 6.05778992e-01 6.06403768e-01 6.07028484e-01 6.07653260e-01 6.08278036e-01 6.08902752e-01 6.09527528e-01 6.10152304e-01 6.10777020e-01 6.11401796e-01 6.12026572e-01 6.12651289e-01 6.13276064e-01 6.13900840e-01 6.14525557e-01 6.15150332e-01 6.15775108e-01 6.16399825e-01 6.17024601e-01 6.17649376e-01 6.18274093e-01 6.18898869e-01 6.19523644e-01 6.20148361e-01 6.20773137e-01 6.21397913e-01 6.22022629e-01 6.22647405e-01 6.23272181e-01 6.23896897e-01 6.24521673e-01 6.25146449e-01 6.25771165e-01 6.26395941e-01 6.27020717e-01 6.27645433e-01 6.28270209e-01 6.28894985e-01 6.29519701e-01 6.30144477e-01 6.30769253e-01 6.31393969e-01 6.32018745e-01 6.32643521e-01 6.33268237e-01 6.33893013e-01 6.34517789e-01 6.35142505e-01 6.35767281e-01 6.36392057e-01 6.37016773e-01 6.37641549e-01 6.38266325e-01 6.38891041e-01 6.39515817e-01 6.40140593e-01 6.40765309e-01 6.41390085e-01 6.42014861e-01 6.42639577e-01 6.43264353e-01 6.43889129e-01 6.44513845e-01 6.45138621e-01 6.45763397e-01 6.46388113e-01 6.47012889e-01 6.47637665e-01 6.48262382e-01 6.48887157e-01 6.49511933e-01 6.50136650e-01 6.50761425e-01 6.51386201e-01 6.52010918e-01 6.52635694e-01 6.53260469e-01 6.53885186e-01 6.54509962e-01 6.55134737e-01 6.55759454e-01 6.56384230e-01 6.57009006e-01 6.57633722e-01 6.58258498e-01 6.58883274e-01 6.59507990e-01 6.60132766e-01 6.60757542e-01 6.61382258e-01 6.62007034e-01 6.62631810e-01 6.63256526e-01 6.63881302e-01 6.64506078e-01 6.65130794e-01 6.65755570e-01 6.66380346e-01 6.67005062e-01 6.67629838e-01 6.68254614e-01 6.68879330e-01 6.69504106e-01 6.70128882e-01 6.70753598e-01 6.71378374e-01 6.72003150e-01 6.72627866e-01 6.73252642e-01 6.73877418e-01 6.74502134e-01 6.75126910e-01 6.75751686e-01 6.76376402e-01 6.77001178e-01 6.77625954e-01 6.78250670e-01 6.78875446e-01 6.79500222e-01 6.80124938e-01 6.80749714e-01 6.81374490e-01 6.81999207e-01 6.82623982e-01 6.83248758e-01 6.83873475e-01 6.84498250e-01 6.85123026e-01 6.85747743e-01 6.86372519e-01 6.86997294e-01 6.87622011e-01 6.88246787e-01 6.88871562e-01 6.89496279e-01 6.90121055e-01 6.90745831e-01 6.91370547e-01 6.91995323e-01 6.92620099e-01 6.93244815e-01 6.93869591e-01 6.94494367e-01 6.95119083e-01 6.95743859e-01 6.96368635e-01 6.96993351e-01 6.97618127e-01 6.98242903e-01 6.98867619e-01 6.99492395e-01 7.00117171e-01 7.00741887e-01 7.01366663e-01 7.01991439e-01 7.02616155e-01 7.03240931e-01 7.03865707e-01 7.04490423e-01 7.05115199e-01 7.05739975e-01 7.06364691e-01 7.06989467e-01 7.07614183e-01 7.08238959e-01 7.08863735e-01 7.09488451e-01 7.10113227e-01 7.10738003e-01 7.11362720e-01 7.11987495e-01 7.12612271e-01 7.13236988e-01 7.13861763e-01 7.14486539e-01 7.15111256e-01 7.15736032e-01 7.16360807e-01 7.16985524e-01 7.17610300e-01 7.18235075e-01 7.18859792e-01 7.19484568e-01 7.20109344e-01 7.20734060e-01 7.21358836e-01 7.21983612e-01 7.22608328e-01 7.23233104e-01 7.23857880e-01 7.24482596e-01 7.25107372e-01 7.25732148e-01 7.26356864e-01 7.26981640e-01 7.27606416e-01 7.28231132e-01 7.28855908e-01 7.29480684e-01 7.30105400e-01 7.30730176e-01 7.31354952e-01 7.31979668e-01 7.32604444e-01 7.33229220e-01 7.33853936e-01 7.34478712e-01 7.35103488e-01 7.35728204e-01 7.36352980e-01 7.36977756e-01 7.37602472e-01 7.38227248e-01 7.38852024e-01 7.39476740e-01 7.40101516e-01 7.40726292e-01 7.41351008e-01 7.41975784e-01 7.42600560e-01 7.43225276e-01 7.43850052e-01 7.44474828e-01 7.45099545e-01 7.45724320e-01 7.46349096e-01 7.46973813e-01 7.47598588e-01 7.48223364e-01 7.48848081e-01 7.49472857e-01 7.50097632e-01 7.50722349e-01 7.51347125e-01 7.51971900e-01 7.52596617e-01 7.53221393e-01 7.53846169e-01 7.54470885e-01 7.55095661e-01 7.55720437e-01 7.56345153e-01 7.56969929e-01 7.57594705e-01 7.58219421e-01 7.58844197e-01 7.59468973e-01 7.60093689e-01 7.60718465e-01 7.61343241e-01 7.61967957e-01 7.62592733e-01 7.63217509e-01 7.63842225e-01 7.64467001e-01 7.65091777e-01 7.65716493e-01 7.66341269e-01 7.66966045e-01 7.67590761e-01 7.68215537e-01 7.68840313e-01 7.69465029e-01 7.70089805e-01 7.70714581e-01 7.71339297e-01 7.71964073e-01 7.72588849e-01 7.73213565e-01 7.73838341e-01 7.74463117e-01 7.75087833e-01 7.75712609e-01 7.76337385e-01 7.76962101e-01 7.77586877e-01 7.78211653e-01 7.78836370e-01 7.79461145e-01 7.80085921e-01 7.80710638e-01 7.81335413e-01 7.81960189e-01 7.82584906e-01 7.83209682e-01 7.83834457e-01 7.84459174e-01 7.85083950e-01 7.85708725e-01 7.86333442e-01 7.86958218e-01 7.87582994e-01 7.88207710e-01 7.88832486e-01 7.89457262e-01 7.90081978e-01 7.90706754e-01 7.91331530e-01 7.91956246e-01 7.92581022e-01 7.93205798e-01 7.93830514e-01 7.94455290e-01 7.95080066e-01 7.95704782e-01 7.96329558e-01 7.96954334e-01 7.97579050e-01 7.98203826e-01 7.98828602e-01 7.99453318e-01 8.00078094e-01 8.00702870e-01 8.01327586e-01 8.01952362e-01 8.02577138e-01 8.03201854e-01 8.03826630e-01 8.04451406e-01 8.05076122e-01 8.05700898e-01 8.06325674e-01 8.06950390e-01 8.07575166e-01 8.08199942e-01 8.08824658e-01 8.09449434e-01 8.10074210e-01 8.10698926e-01 8.11323702e-01 8.11948478e-01 8.12573195e-01 8.13197970e-01 8.13822746e-01 8.14447463e-01 8.15072238e-01 8.15697014e-01 8.16321731e-01 8.16946507e-01 8.17571282e-01 8.18195999e-01 8.18820775e-01 8.19445550e-01 8.20070267e-01 8.20695043e-01 8.21319818e-01 8.21944535e-01 8.22569311e-01 8.23194087e-01 8.23818803e-01 8.24443579e-01 8.25068355e-01 8.25693071e-01 8.26317847e-01 8.26942623e-01 8.27567339e-01 8.28192115e-01 8.28816891e-01 8.29441607e-01 8.30066383e-01 8.30691159e-01 8.31315875e-01 8.31940651e-01 8.32565427e-01 8.33190143e-01 8.33814919e-01 8.34439695e-01 8.35064411e-01 8.35689187e-01 8.36313963e-01 8.36938679e-01 8.37563455e-01 8.38188231e-01 8.38812947e-01 8.39437723e-01 8.40062499e-01 8.40687215e-01 8.41311991e-01 8.41936767e-01 8.42561483e-01 8.43186259e-01 8.43811035e-01 8.44435751e-01 8.45060527e-01 8.45685303e-01 8.46310019e-01 8.46934795e-01 8.47559571e-01 8.48184288e-01 8.48809063e-01 8.49433839e-01 8.50058556e-01 8.50683331e-01 8.51308107e-01 8.51932824e-01 8.52557600e-01 8.53182375e-01 8.53807092e-01 8.54431868e-01 8.55056643e-01 8.55681360e-01 8.56306136e-01 8.56930912e-01 8.57555628e-01 8.58180404e-01 8.58805180e-01 8.59429896e-01 8.60054672e-01 8.60679448e-01 8.61304164e-01 8.61928940e-01 8.62553716e-01 8.63178432e-01 8.63803208e-01 8.64427984e-01 8.65052700e-01 8.65677476e-01 8.66302252e-01 8.66926968e-01 8.67551744e-01 8.68176520e-01 8.68801236e-01 8.69426012e-01 8.70050788e-01 8.70675504e-01 8.71300280e-01 8.71925056e-01 8.72549772e-01 8.73174548e-01 8.73799324e-01 8.74424040e-01 8.75048816e-01 8.75673592e-01 8.76298308e-01 8.76923084e-01 8.77547860e-01 8.78172576e-01 8.78797352e-01 8.79422128e-01 8.80046844e-01 8.80671620e-01 8.81296396e-01 8.81921113e-01 8.82545888e-01 8.83170664e-01 8.83795381e-01 8.84420156e-01 8.85044932e-01 8.85669649e-01 8.86294425e-01 8.86919200e-01 8.87543917e-01 8.88168693e-01 8.88793468e-01 8.89418185e-01 8.90042961e-01 8.90667737e-01 8.91292453e-01 8.91917229e-01 8.92542005e-01 8.93166721e-01 8.93791497e-01 8.94416273e-01 8.95040989e-01 8.95665765e-01 8.96290541e-01 8.96915257e-01 8.97540033e-01 8.98164809e-01 8.98789525e-01 8.99414301e-01 9.00039077e-01 9.00663793e-01 9.01288569e-01 9.01913345e-01 9.02538061e-01 9.03162837e-01 9.03787553e-01 9.04412329e-01 9.05037105e-01 9.05661821e-01 9.06286597e-01 9.06911373e-01 9.07536089e-01 9.08160865e-01 9.08785641e-01 9.09410357e-01 9.10035133e-01 9.10659909e-01 9.11284626e-01 9.11909401e-01 9.12534177e-01 9.13158894e-01 9.13783669e-01 9.14408445e-01 9.15033162e-01 9.15657938e-01 9.16282713e-01 9.16907430e-01 9.17532206e-01 9.18156981e-01 9.18781698e-01 9.19406474e-01 9.20031250e-01 9.20655966e-01 9.21280742e-01 9.21905518e-01 9.22530234e-01 9.23155010e-01 9.23779786e-01 9.24404502e-01 9.25029278e-01 9.25654054e-01 9.26278770e-01 9.26903546e-01 9.27528322e-01 9.28153038e-01 9.28777814e-01 9.29402590e-01 9.30027306e-01 9.30652082e-01 9.31276858e-01 9.31901574e-01 9.32526350e-01 9.33151126e-01 9.33775842e-01 9.34400618e-01 9.35025394e-01 9.35650110e-01 9.36274886e-01 9.36899662e-01 9.37524378e-01 9.38149154e-01 9.38773930e-01 9.39398646e-01 9.40023422e-01 9.40648198e-01 9.41272914e-01 9.41897690e-01 9.42522466e-01 9.43147182e-01 9.43771958e-01 9.44396734e-01 9.45021451e-01 9.45646226e-01 9.46271002e-01 9.46895719e-01 9.47520494e-01 9.48145270e-01 9.48769987e-01 9.49394763e-01 9.50019538e-01 9.50644255e-01 9.51269031e-01 9.51893806e-01 9.52518523e-01 9.53143299e-01 9.53768075e-01 9.54392791e-01 9.55017567e-01 9.55642343e-01 9.56267059e-01 9.56891835e-01 9.57516611e-01 9.58141327e-01 9.58766103e-01 9.59390879e-01 9.60015595e-01 9.60640371e-01 9.61265147e-01 9.61889863e-01 9.62514639e-01 9.63139415e-01 9.63764131e-01 9.64388907e-01 9.65013683e-01 9.65638399e-01 9.66263175e-01 9.66887951e-01 9.67512667e-01 9.68137443e-01 9.68762219e-01 9.69386935e-01 9.70011711e-01 9.70636487e-01 9.71261203e-01 9.71885979e-01 9.72510755e-01 9.73135471e-01 9.73760247e-01 9.74385023e-01 9.75009739e-01 9.75634515e-01 9.76259291e-01 9.76884007e-01 9.77508783e-01 9.78133559e-01 9.78758276e-01 9.79383051e-01 9.80007827e-01 9.80632544e-01 9.81257319e-01 9.81882095e-01 9.82506812e-01 9.83131588e-01 9.83756363e-01 9.84381080e-01 9.85005856e-01 9.85630631e-01 9.86255348e-01 9.86880124e-01 9.87504900e-01 9.88129616e-01 9.88754392e-01 9.89379168e-01 9.90003884e-01 9.90628660e-01 9.91253436e-01 9.91878152e-01 9.92502928e-01 9.93127704e-01 9.93752420e-01 9.94377196e-01 9.95001972e-01 9.95626688e-01 9.96251464e-01 9.96876240e-01 9.97500956e-01 9.98125732e-01 9.98750508e-01 9.99375224e-01 1.00000000e+00 
            </Histogram>
            <HistogramBinning NBins="1601">
              -1.19309425e+00 -1.19299424e+00 -8.90194237e-01 -8.39444995e-01 -8.02698016e-01 -7.81136811e-01 -7.59978473e-01 -7.45720029e-01 -7.30238199e-01 -7.13956952e-01 -6.93223894e-01 -6.86078787e-01 -6.78516865e-01 -6.71101749e-01 -6.61595583e-01 -6.53560102e-01 -6.48396671e-01 -6.37826800e-01 -6.28118277e-01 -6.23798609e-01 -6.17241263e-01 -6.13456368e-01 -6.08920395e-01 -5.98714888e-01 -5.94011664e-01 -5.87728560e-01 -5.79995871e-01 -5.72202444e-01 -5.67231596e-01 -5.59018195e-01 -5.55590212e-01 -5.47951877e-01 -5.43629169e-01 -5.39018452e-01 -5.35128534e-01 -5.31625271e-01 -5.29671669e-01 -5.25528848e-01 -5.20366192e-01 -5.17651498e-01 -5.15197337e-01 -5.12331009e-01 -5.07867217e-01 -5.04398406e-01 -5.03391445e-01 -5.01195312e-01 -4.99277025e-01 -4.97029036e-01 -4.94281292e-01 -4.92206573e-01 -4.88954157e-01 -4.86194909e-01 -4.82134134e-01 -4.78801489e-01 -4.77012485e-01 -4.74073827e-01 -4.72401381e-01 -4.69606519e-01 -4.68169510e-01 -4.64520991e-01 -4.62869287e-01 -4.59726244e-01 -4.57907468e-01 -4.56056327e-01 -4.52731937e-01 -4.49796051e-01 -4.47875977e-01 -4.45480913e-01 -4.42672789e-01 -4.39704388e-01 -4.38348770e-01 -4.37228471e-01 -4.35621560e-01 -4.33102131e-01 -4.31889921e-01 -4.30073351e-01 -4.27777410e-01 -4.25224185e-01 -4.23954576e-01 -4.22466457e-01 -4.20038044e-01 -4.17781800e-01 -4.14980441e-01 -4.12494838e-01 -4.11038190e-01 -4.09507751e-01 -4.07960445e-01 -4.06344652e-01 -4.04495925e-01 -4.03236568e-01 -4.02059972e-01 -3.99199963e-01 -3.96624982e-01 -3.95643592e-01 -3.93918276e-01 -3.91483754e-01 -3.89099032e-01 -3.86555135e-01 -3.84453177e-01 -3.82887751e-01 -3.80952507e-01 -3.78901392e-01 -3.75403970e-01 -3.73178333e-01 -3.71738136e-01 -3.69010359e-01 -3.67317885e-01 -3.66312057e-01 -3.63877177e-01 -3.61796439e-01 -3.59588295e-01 -3.57955933e-01 -3.55377913e-01 -3.53998542e-01 -3.53092670e-01 -3.52131188e-01 -3.50807548e-01 -3.49873364e-01 -3.49202454e-01 -3.47858876e-01 -3.45750660e-01 -3.44603002e-01 -3.43052030e-01 -3.41273069e-01 -3.39869857e-01 -3.38155240e-01 -3.35732788e-01 -3.34405214e-01 -3.31555992e-01 -3.30002815e-01 -3.28039855e-01 -3.26647669e-01 -3.25398982e-01 -3.24289858e-01 -3.22703242e-01 -3.21852595e-01 -3.20046067e-01 -3.18673521e-01 -3.16519648e-01 -3.15679103e-01 -3.14205468e-01 -3.13417017e-01 -3.12185943e-01 -3.11070055e-01 -3.09776992e-01 -3.08309883e-01 -3.06465238e-01 -3.03827077e-01 -3.02282125e-01 -3.01615924e-01 -3.00643086e-01 -2.98822373e-01 -2.97648638e-01 -2.96654522e-01 -2.95257270e-01 -2.93205351e-01 -2.91934133e-01 -2.90219754e-01 -2.88376331e-01 -2.86994278e-01 -2.85134524e-01 -2.84142405e-01 -2.81245381e-01 -2.79874206e-01 -2.78844237e-01 -2.77728349e-01 -2.75920510e-01 -2.75232553e-01 -2.74054796e-01 -2.72503555e-01 -2.71651536e-01 -2.70510674e-01 -2.69773602e-01 -2.68657804e-01 -2.67473340e-01 -2.66391426e-01 -2.65294373e-01 -2.64827818e-01 -2.63931394e-01 -2.63013422e-01 -2.62174606e-01 -2.60888666e-01 -2.59656370e-01 -2.58173853e-01 -2.55852580e-01 -2.54144013e-01 -2.53185183e-01 -2.51270771e-01 -2.50375718e-01 -2.48416469e-01 -2.47301817e-01 -2.45280117e-01 -2.44317785e-01 -2.43506864e-01 -2.42449895e-01 -2.40039110e-01 -2.38779038e-01 -2.37366796e-01 -2.35871658e-01 -2.34150037e-01 -2.32769787e-01 -2.31254429e-01 -2.30134889e-01 -2.29394719e-01 -2.27376878e-01 -2.26209253e-01 -2.24936634e-01 -2.23799795e-01 -2.22708330e-01 -2.21699819e-01 -2.20518067e-01 -2.19339237e-01 -2.17959553e-01 -2.16463342e-01 -2.15321824e-01 -2.14209348e-01 -2.13064194e-01 -2.11292878e-01 -2.10158736e-01 -2.09464341e-01 -2.08641842e-01 -2.07538217e-01 -2.06210494e-01 -2.05117285e-01 -2.03752711e-01 -2.02161714e-01 -2.00971901e-01 -1.98793530e-01 -1.97572485e-01 -1.96257368e-01 -1.95201918e-01 -1.94016293e-01 -1.92413330e-01 -1.90758780e-01 -1.89951926e-01 -1.89395174e-01 -1.88525334e-01 -1.87476188e-01 -1.86110422e-01 -1.84472308e-01 -1.82785362e-01 -1.81705073e-01 -1.79656714e-01 -1.78057745e-01 -1.77166581e-01 -1.76110297e-01 -1.74762428e-01 -1.73260301e-01 -1.70112565e-01 -1.68730021e-01 -1.67548344e-01 -1.67026043e-01 -1.65982500e-01 -1.64663494e-01 -1.63301736e-01 -1.61943570e-01 -1.61069825e-01 -1.59758002e-01 -1.58663943e-01 -1.57791242e-01 -1.56664237e-01 -1.55455887e-01 -1.54558286e-01 -1.53073370e-01 -1.52006269e-01 -1.50124058e-01 -1.49050817e-01 -1.47674307e-01 -1.47064909e-01 -1.45409673e-01 -1.44531071e-01 -1.43700749e-01 -1.42615646e-01 -1.41400680e-01 -1.40068635e-01 -1.38076946e-01 -1.37417212e-01 -1.36290804e-01 -1.35374933e-01 -1.34021342e-01 -1.32393554e-01 -1.30812153e-01 -1.30410463e-01 -1.29355729e-01 -1.28305092e-01 -1.27459794e-01 -1.25987723e-01 -1.24663576e-01 -1.23420149e-01 -1.22315496e-01 -1.21407844e-01 -1.20470829e-01 -1.19474165e-01 -1.18339367e-01 -1.17295437e-01 -1.16537884e-01 -1.16025887e-01 -1.15075722e-01 -1.14312112e-01 -1.13443047e-01 -1.11971870e-01 -1.10460103e-01 -1.09570205e-01 -1.07863165e-01 -1.07211761e-01 -1.06198989e-01 -1.04860112e-01 -1.04287423e-01 -1.03378609e-01 -1.01936951e-01 -1.00176156e-01 -9.90734175e-02 -9.79467779e-02 -9.69225317e-02 -9.56813917e-02 -9.48142484e-02 -9.39553902e-02 -9.31752026e-02 -9.17084664e-02 -9.04806629e-02 -8.95234346e-02 -8.81107971e-02 -8.64148512e-02 -8.55972394e-02 -8.45348462e-02 -8.34002197e-02 -8.23315755e-02 -8.05195495e-02 -7.89969414e-02 -7.83037618e-02 -7.73918778e-02 -7.67757297e-02 -7.50611275e-02 -7.34528825e-02 -7.22165331e-02 -7.12726042e-02 -7.04020485e-02 -6.94521442e-02 -6.79381117e-02 -6.72676861e-02 -6.63540438e-02 -6.51978031e-02 -6.45126775e-02 -6.35707602e-02 -6.27973154e-02 -6.17438890e-02 -6.01753928e-02 -5.89410365e-02 -5.75427711e-02 -5.61668985e-02 -5.48896194e-02 -5.42323813e-02 -5.28154261e-02 -5.19667342e-02 -5.06178141e-02 -4.86370958e-02 -4.77072820e-02 -4.65205237e-02 -4.49113175e-02 -4.42808531e-02 -4.33654934e-02 -4.20485325e-02 -4.09453288e-02 -3.99868526e-02 -3.94278355e-02 -3.84360701e-02 -3.74502353e-02 -3.52779329e-02 -3.37808467e-02 -3.28936391e-02 -3.13639715e-02 -3.02301012e-02 -2.87716873e-02 -2.79579051e-02 -2.59651020e-02 -2.45522987e-02 -2.35613864e-02 -2.26546805e-02 -2.08648387e-02 -1.98682155e-02 -1.81920100e-02 -1.64830033e-02 -1.58475544e-02 -1.48636047e-02 -1.38855670e-02 -1.30809136e-02 -1.20251654e-02 -1.13924993e-02 -1.06230145e-02 -9.58483759e-03 -8.83617532e-03 -8.15508422e-03 -7.56710581e-03 -6.38303068e-03 -5.69711579e-03 -4.11071768e-03 -2.64362921e-03 -1.71638373e-03 -3.89634602e-04 7.12666137e-04 2.03646976e-03 2.71575828e-03 3.79995559e-03 5.18910028e-03 5.84435230e-03 6.89512817e-03 8.33160803e-03 9.85592697e-03 1.11484742e-02 1.21383285e-02 1.27606876e-02 1.37838488e-02 1.45642590e-02 1.59446206e-02 1.70046259e-02 1.82514321e-02 1.99094079e-02 2.07168888e-02 2.21851990e-02 2.31689401e-02 2.39359699e-02 2.56219245e-02 2.69902963e-02 2.81664953e-02 2.91479584e-02 3.00660469e-02 3.10561117e-02 3.19987237e-02 3.39993723e-02 3.46826538e-02 3.54825333e-02 3.64679098e-02 3.75164784e-02 3.86211015e-02 3.98317836e-02 4.14220467e-02 4.25542556e-02 4.35544029e-02 4.59432229e-02 4.72093709e-02 4.81695496e-02 4.90792394e-02 5.04247509e-02 5.19859418e-02 5.30543290e-02 5.43743148e-02 5.53654470e-02 5.66536896e-02 5.81773333e-02 5.88641651e-02 5.99856265e-02 6.12158589e-02 6.26215190e-02 6.37663081e-02 6.47618473e-02 6.61094785e-02 6.76094815e-02 6.85023069e-02 6.99901506e-02 7.10578933e-02 7.18805268e-02 7.28832856e-02 7.37117529e-02 7.46187195e-02 7.52995908e-02 7.63419569e-02 7.72112533e-02 7.83648342e-02 7.97045529e-02 8.07696357e-02 8.13402161e-02 8.22219029e-02 8.31839889e-02 8.48620087e-02 8.57392177e-02 8.67525637e-02 8.83424953e-02 9.11450833e-02 9.22752097e-02 9.27007422e-02 9.42100137e-02 9.56720412e-02 9.65858251e-02 9.80102569e-02 9.93789658e-02 1.00142241e-01 1.00904644e-01 1.02167562e-01 1.03631981e-01 1.04887739e-01 1.05858155e-01 1.06862277e-01 1.07764497e-01 1.09179787e-01 1.10030070e-01 1.10951297e-01 1.11661375e-01 1.13348052e-01 1.14904322e-01 1.16094746e-01 1.17023751e-01 1.17904142e-01 1.19186968e-01 1.20692208e-01 1.21473022e-01 1.22088410e-01 1.22982413e-01 1.23917997e-01 1.25001460e-01 1.26262873e-01 1.27956897e-01 1.28869906e-01 1.30282834e-01 1.31299928e-01 1.32511407e-01 1.33192092e-01 1.34155825e-01 1.35880336e-01 1.36772752e-01 1.37530431e-01 1.39100954e-01 1.40094519e-01 1.42248973e-01 1.43615723e-01 1.45329297e-01 1.46475196e-01 1.47185460e-01 1.48759633e-01 1.50612772e-01 1.51523918e-01 1.52271926e-01 1.53791592e-01 1.55117303e-01 1.56459883e-01 1.57129943e-01 1.58425570e-01 1.60030439e-01 1.61358565e-01 1.62593752e-01 1.63933396e-01 1.65372536e-01 1.66578174e-01 1.67599097e-01 1.69696718e-01 1.71306998e-01 1.72330171e-01 1.73165038e-01 1.74133241e-01 1.75184801e-01 1.75868869e-01 1.77221358e-01 1.78187385e-01 1.79455236e-01 1.80448979e-01 1.81133881e-01 1.82338625e-01 1.83134958e-01 1.85268849e-01 1.86707854e-01 1.87509224e-01 1.89655364e-01 1.90927044e-01 1.93284422e-01 1.94373414e-01 1.95201814e-01 1.96374431e-01 1.96863249e-01 1.97916925e-01 1.99143142e-01 1.99851125e-01 2.01118335e-01 2.02616826e-01 2.03389734e-01 2.04620302e-01 2.05701917e-01 2.06715658e-01 2.07238793e-01 2.08581015e-01 2.09747255e-01 2.11048797e-01 2.12767154e-01 2.14415297e-01 2.15691000e-01 2.17195198e-01 2.18051940e-01 2.19838127e-01 2.21309945e-01 2.22606540e-01 2.23928422e-01 2.24989802e-01 2.25821152e-01 2.27767855e-01 2.29007021e-01 2.30252087e-01 2.32764974e-01 2.33776718e-01 2.34698460e-01 2.35909566e-01 2.37422898e-01 2.38746688e-01 2.40160584e-01 2.41540536e-01 2.42131323e-01 2.43705928e-01 2.45100558e-01 2.46736214e-01 2.47965634e-01 2.49356389e-01 2.50812650e-01 2.51783609e-01 2.53405422e-01 2.54456609e-01 2.55502492e-01 2.56899208e-01 2.58309543e-01 2.59542704e-01 2.60571659e-01 2.61379838e-01 2.62450665e-01 2.63197005e-01 2.64000475e-01 2.65281498e-01 2.66699076e-01 2.68295079e-01 2.69431829e-01 2.70684808e-01 2.71738499e-01 2.73227900e-01 2.74089485e-01 2.75596619e-01 2.76429623e-01 2.78068453e-01 2.79238820e-01 2.80444950e-01 2.81465054e-01 2.82589048e-01 2.84571856e-01 2.85406232e-01 2.86715031e-01 2.87526011e-01 2.88311183e-01 2.89008021e-01 2.90867329e-01 2.92489469e-01 2.94366241e-01 2.95665711e-01 2.98231542e-01 3.00119758e-01 3.02401096e-01 3.03680062e-01 3.04172844e-01 3.05295110e-01 3.06418598e-01 3.08986127e-01 3.09848607e-01 3.11047077e-01 3.12410206e-01 3.13358873e-01 3.15333456e-01 3.17007512e-01 3.18264753e-01 3.19312751e-01 3.20774168e-01 3.22329283e-01 3.23183835e-01 3.25251460e-01 3.26861858e-01 3.28317016e-01 3.29594016e-01 3.31792057e-01 3.33323181e-01 3.34869862e-01 3.36245149e-01 3.37221384e-01 3.38699222e-01 3.39659691e-01 3.40756685e-01 3.42459887e-01 3.43635142e-01 3.44502181e-01 3.45442951e-01 3.47119153e-01 3.48230571e-01 3.49260420e-01 3.50964904e-01 3.53145599e-01 3.54217410e-01 3.56479496e-01 3.57675999e-01 3.59359443e-01 3.60748917e-01 3.62975538e-01 3.64371806e-01 3.65314394e-01 3.67876023e-01 3.70542765e-01 3.72935265e-01 3.74153763e-01 3.76936018e-01 3.78319442e-01 3.81073892e-01 3.82227898e-01 3.83991599e-01 3.85908276e-01 3.88083100e-01 3.89831007e-01 3.91680837e-01 3.93976867e-01 3.95769656e-01 3.96815091e-01 3.99270654e-01 4.01317835e-01 4.02860701e-01 4.04518336e-01 4.06410426e-01 4.08083826e-01 4.09168363e-01 4.11729962e-01 4.13322270e-01 4.15820986e-01 4.16704386e-01 4.18599695e-01 4.20909554e-01 4.22378510e-01 4.24378008e-01 4.26799178e-01 4.28784281e-01 4.30903852e-01 4.33466166e-01 4.35529292e-01 4.36559945e-01 4.40415025e-01 4.42089677e-01 4.43138212e-01 4.44613695e-01 4.48148340e-01 4.50751901e-01 4.56008345e-01 4.58436549e-01 4.62977946e-01 4.65132266e-01 4.67021853e-01 4.68834907e-01 4.69995618e-01 4.72488523e-01 4.74034190e-01 4.76246417e-01 4.79789406e-01 4.83296663e-01 4.85516399e-01 4.87687707e-01 4.90339249e-01 4.92434919e-01 4.94701147e-01 4.98238862e-01 5.00415504e-01 5.02988398e-01 5.06403744e-01 5.08816063e-01 5.13973594e-01 5.17212987e-01 5.19779265e-01 5.24059534e-01 5.27015924e-01 5.30365169e-01 5.33878267e-01 5.36868513e-01 5.41426480e-01 5.45962870e-01 5.50093830e-01 5.56329668e-01 5.60934722e-01 5.64749718e-01 5.69125772e-01 5.76161623e-01 5.81036150e-01 5.84324002e-01 5.94158053e-01 5.99605978e-01 6.05462611e-01 6.10949755e-01 6.18396699e-01 6.23622239e-01 6.32691264e-01 6.39698803e-01 6.50075912e-01 6.57094419e-01 6.64431095e-01 6.73845768e-01 6.86776340e-01 7.02339947e-01 7.09979177e-01 7.18995452e-01 7.24323869e-01 7.36797988e-01 7.53816247e-01 7.64286995e-01 7.71899641e-01 7.91971266e-01 8.18509877e-01 8.60247612e-01 8.98462236e-01 9.75704253e-01 1.07351792e+00 1.31484377e+00 1.41708314e+00 1.47534049e+00 1.53951895e+00 1.60042048e+00 1.63248253e+00 1.69566333e+00 1.73798478e+00 1.79347777e+00 1.80960202e+00 1.82494700e+00 1.84020174e+00 1.87215519e+00 1.88564670e+00 1.92439663e+00 1.96078157e+00 1.98515415e+00 1.99520671e+00 2.02095222e+00 2.03249955e+00 2.05917358e+00 2.06415582e+00 2.07572770e+00 2.09722543e+00 2.11539173e+00 2.13497591e+00 2.15488029e+00 2.16616225e+00 2.18473315e+00 2.20113349e+00 2.21622467e+00 2.23291731e+00 2.24199128e+00 2.25190210e+00 2.26851082e+00 2.29399419e+00 2.30877805e+00 2.31794453e+00 2.33487558e+00 2.34138632e+00 2.35075116e+00 2.36664248e+00 2.38046408e+00 2.39034820e+00 2.39799786e+00 2.40677762e+00 2.41468787e+00 2.42579412e+00 2.43548417e+00 2.45041132e+00 2.46023035e+00 2.47344494e+00 2.48775125e+00 2.49874544e+00 2.50382209e+00 2.51455832e+00 2.52764726e+00 2.53485632e+00 2.54055309e+00 2.55053043e+00 2.55929804e+00 2.56888056e+00 2.57842922e+00 2.58752227e+00 2.59732604e+00 2.60516524e+00 2.61738515e+00 2.62416124e+00 2.63376379e+00 2.64661837e+00 2.65427709e+00 2.66573381e+00 2.66875362e+00 2.67708683e+00 2.68709850e+00 2.69471669e+00 2.69977975e+00 2.70837593e+00 2.71351194e+00 2.71918845e+00 2.72745085e+00 2.73731327e+00 2.74429893e+00 2.74981737e+00 2.75709653e+00 2.76087117e+00 2.76638007e+00 2.77038288e+00 2.77495003e+00 2.78147769e+00 2.78482676e+00 2.79167509e+00 2.79822922e+00 2.80474782e+00 2.81274009e+00 2.82575488e+00 2.82974744e+00 2.83518314e+00 2.84221697e+00 2.85361910e+00 2.86144376e+00 2.86631703e+00 2.87151289e+00 2.87971807e+00 2.88577199e+00 2.89015985e+00 2.89595938e+00 2.90281010e+00 2.90766263e+00 2.91354418e+00 2.91898751e+00 2.92749214e+00 2.93406916e+00 2.93796849e+00 2.94525170e+00 2.95014381e+00 2.95558023e+00 2.96326733e+00 2.96714711e+00 2.96974730e+00 2.97384763e+00 2.97892857e+00 2.98406553e+00 2.98622298e+00 2.99027848e+00 2.99508524e+00 3.00036740e+00 3.00557303e+00 3.01197982e+00 3.01527548e+00 3.02167535e+00 3.02716470e+00 3.03215504e+00 3.03725672e+00 3.04327512e+00 3.05022335e+00 3.05369067e+00 3.05874109e+00 3.06228018e+00 3.06688762e+00 3.07237554e+00 3.07653546e+00 3.07992792e+00 3.08338952e+00 3.08819008e+00 3.09241676e+00 3.09697294e+00 3.10048485e+00 3.10389423e+00 3.10813880e+00 3.11330032e+00 3.11722016e+00 3.11966228e+00 3.12530923e+00 3.12766767e+00 3.13521719e+00 3.13906074e+00 3.14181137e+00 3.14608383e+00 3.14995980e+00 3.15309978e+00 3.15719652e+00 3.16114950e+00 3.16601014e+00 3.17013931e+00 3.17401958e+00 3.17936277e+00 3.18260574e+00 3.18605566e+00 3.18961477e+00 3.19352746e+00 3.19629240e+00 3.20342302e+00 3.20939231e+00 3.21923351e+00 3.22274518e+00 3.22732186e+00 3.23043275e+00 3.23448133e+00 3.23936653e+00 3.24287963e+00 3.24722695e+00 3.25159764e+00 3.25390768e+00 3.25673318e+00 3.25983620e+00 3.26414347e+00 3.26832914e+00 3.27314687e+00 3.27551532e+00 3.28076315e+00 3.28427005e+00 3.28783822e+00 3.29060769e+00 3.29466414e+00 3.29940224e+00 3.30326414e+00 3.30762959e+00 3.31327391e+00 3.31841636e+00 3.32116032e+00 3.32285285e+00 3.32692122e+00 3.33189893e+00 3.33438206e+00 3.33814311e+00 3.34219885e+00 3.34614825e+00 3.34835863e+00 3.35432291e+00 3.35686469e+00 3.36127758e+00 3.36417627e+00 3.36531091e+00 3.37021923e+00 3.37491941e+00 3.37796593e+00 3.38115454e+00 3.38493824e+00 3.38722849e+00 3.39083290e+00 3.39590859e+00 3.40001035e+00 3.40524983e+00 3.40980411e+00 3.41350245e+00 3.41664910e+00 3.42118335e+00 3.42338133e+00 3.42799067e+00 3.43095946e+00 3.43254638e+00 3.43719339e+00 3.44321513e+00 3.44902086e+00 3.45279336e+00 3.45507693e+00 3.45794511e+00 3.46171522e+00 3.46733046e+00 3.47053146e+00 3.47458768e+00 3.47997761e+00 3.48331046e+00 3.48572993e+00 3.48820567e+00 3.49203372e+00 3.49590278e+00 3.49918222e+00 3.50344729e+00 3.50622320e+00 3.50958300e+00 3.51278877e+00 3.51891971e+00 3.52210355e+00 3.52489090e+00 3.52855659e+00 3.53197837e+00 3.53415036e+00 3.53886843e+00 3.54146504e+00 3.54584408e+00 3.55215144e+00 3.55525327e+00 3.55766129e+00 3.56148696e+00 3.56514716e+00 3.56966734e+00 3.57578707e+00 3.57975245e+00 3.58336949e+00 3.58505583e+00 3.58828521e+00 3.59073138e+00 3.59393764e+00 3.59863281e+00 3.60124421e+00 3.60385013e+00 3.60640168e+00 3.60969949e+00 3.61359882e+00 3.61628556e+00 3.62032509e+00 3.62149572e+00 3.62668633e+00 3.63226891e+00 3.63530612e+00 3.63958240e+00 3.64345956e+00 3.64633155e+00 3.65049696e+00 3.65475464e+00 3.65888834e+00 3.66271782e+00 3.66671848e+00 3.66973424e+00 3.67236686e+00 3.67619920e+00 3.67980838e+00 3.68343997e+00 3.68623352e+00 3.68942666e+00 3.69294834e+00 3.69583082e+00 3.69956660e+00 3.70292687e+00 3.70480895e+00 3.70690942e+00 3.70971274e+00 3.71722555e+00 3.71975183e+00 3.72246099e+00 3.72538924e+00 3.72692585e+00 3.73041940e+00 3.73529530e+00 3.73736739e+00 3.73880005e+00 3.74028468e+00 3.74419570e+00 3.74842715e+00 3.75150275e+00 3.75456190e+00 3.75762153e+00 3.76035523e+00 3.76490569e+00 3.76749420e+00 3.77170968e+00 3.77461600e+00 3.77786660e+00 3.78116345e+00 3.78434992e+00 3.78640246e+00 3.79093742e+00 3.79444885e+00 3.79782939e+00 3.79939461e+00 3.80247617e+00 3.80661774e+00 3.80875111e+00 3.81188965e+00 3.81507993e+00 3.81625915e+00 3.82011342e+00 3.82405615e+00 3.82838106e+00 3.83154535e+00 3.83475494e+00 3.83757234e+00 3.84046459e+00 3.84372306e+00 3.84780288e+00 3.85388780e+00 3.85658884e+00 3.86145401e+00 3.86530113e+00 3.86790490e+00 3.87158895e+00 3.87312675e+00 3.87777948e+00 3.88194633e+00 3.88473892e+00 3.88824940e+00 3.89135265e+00 3.89300871e+00 3.89807677e+00 3.90270877e+00 3.90454912e+00 3.90857482e+00 3.91080546e+00 3.91340184e+00 3.91666770e+00 3.92119145e+00 3.92380857e+00 3.92565823e+00 3.92879081e+00 3.93166423e+00 3.93423700e+00 3.93737411e+00 3.94107246e+00 3.94370627e+00 3.94754839e+00 3.95058274e+00 3.95250773e+00 3.95520997e+00 3.95748138e+00 3.96124554e+00 3.96498132e+00 3.96824241e+00 3.97034025e+00 3.97385669e+00 3.97816062e+00 3.98069644e+00 3.98294568e+00 3.98501396e+00 3.99055481e+00 3.99402285e+00 3.99719834e+00 4.00009251e+00 4.00300598e+00 4.00502539e+00 4.00761414e+00 4.00983191e+00 4.01324987e+00 4.01669502e+00 4.01881552e+00 4.02101326e+00 4.02415037e+00 4.02799940e+00 4.03067589e+00 4.03502941e+00 4.03851795e+00 4.04143667e+00 4.04673576e+00 4.05006599e+00 4.05364895e+00 4.05623007e+00 4.06045866e+00 4.06240845e+00 4.06518984e+00 4.06694841e+00 4.07087803e+00 4.07286835e+00 4.07553434e+00 4.07984829e+00 4.08257675e+00 4.08478785e+00 4.09013605e+00 4.09436655e+00 4.09595537e+00 4.10073614e+00 4.10674667e+00 4.10924053e+00 4.11426163e+00 4.11698675e+00 4.12005711e+00 4.12343073e+00 4.12507486e+00 4.12879753e+00 4.13116980e+00 4.13272190e+00 4.13388205e+00 4.13821936e+00 4.14244699e+00 4.14677477e+00 4.15075111e+00 4.15345478e+00 4.15575409e+00 4.15869522e+00 4.16075468e+00 4.16285515e+00 4.16607237e+00 4.17307472e+00 4.17678261e+00 4.18034172e+00 4.18364668e+00 4.18571758e+00 4.18752289e+00 4.19069386e+00 4.19412231e+00 4.19717598e+00 4.19970417e+00 4.20287991e+00 4.20760918e+00 4.21257019e+00 4.21663523e+00 4.22011518e+00 4.22231579e+00 4.22519636e+00 4.22853088e+00 4.23384476e+00 4.23690128e+00 4.23983669e+00 4.24210501e+00 4.24609852e+00 4.24752665e+00 4.25069141e+00 4.25675058e+00 4.25965405e+00 4.26414347e+00 4.26795387e+00 4.27133751e+00 4.27703190e+00 4.28183317e+00 4.28476477e+00 4.28858614e+00 4.29326248e+00 4.29597378e+00 4.29985857e+00 4.30345774e+00 4.30694866e+00 4.30930424e+00 4.31234598e+00 4.31580162e+00 4.31985617e+00 4.32160091e+00 4.32578135e+00 4.32822466e+00 4.33111715e+00 4.33581400e+00 4.33876228e+00 4.34363365e+00 4.34634066e+00 4.35103941e+00 4.35301876e+00 4.35566759e+00 4.35848188e+00 4.36250067e+00 4.36712885e+00 4.36986303e+00 4.37295771e+00 4.37794209e+00 4.38108110e+00 4.38458824e+00 4.38857555e+00 4.39105082e+00 4.39558792e+00 4.40106392e+00 4.40435219e+00 4.40824032e+00 4.41134357e+00 4.41384459e+00 4.41633987e+00 4.42106485e+00 4.42509842e+00 4.43039036e+00 4.43380022e+00 4.43638897e+00 4.44091177e+00 4.44455290e+00 4.44713354e+00 4.45086432e+00 4.45387602e+00 4.45658541e+00 4.45899677e+00 4.46177912e+00 4.46501064e+00 4.46785498e+00 4.47016668e+00 4.47302151e+00 4.47597313e+00 4.48147583e+00 4.48679781e+00 4.48990822e+00 4.49385548e+00 4.49680233e+00 4.49937820e+00 4.50531101e+00 4.50808191e+00 4.51126480e+00 4.51798487e+00 4.52061844e+00 4.52422905e+00 4.52741861e+00 4.53199482e+00 4.53398180e+00 4.53687572e+00 4.53993988e+00 4.54235744e+00 4.54407310e+00 4.54956150e+00 4.55300617e+00 4.55692959e+00 4.56141043e+00 4.56723595e+00 4.57137489e+00 4.57446480e+00 4.57696295e+00 4.58010197e+00 4.58335733e+00 4.58661890e+00 4.59123278e+00 4.59457207e+00 4.59797668e+00 4.60057831e+00 4.60310221e+00 4.60743761e+00 4.61420774e+00 4.61689377e+00 4.61916351e+00 4.62245083e+00 4.62488651e+00 4.62849092e+00 4.63041687e+00 4.63288832e+00 4.63690615e+00 4.64192009e+00 4.64413548e+00 4.64890575e+00 4.65270615e+00 4.65604353e+00 4.65900755e+00 4.66426325e+00 4.66998053e+00 4.67282104e+00 4.67640400e+00 4.67914104e+00 4.68375731e+00 4.68687487e+00 4.69145393e+00 4.69515705e+00 4.70100927e+00 4.70409918e+00 4.71241140e+00 4.71593571e+00 4.71856546e+00 4.72316217e+00 4.72602177e+00 4.72864532e+00 4.73108530e+00 4.73437166e+00 4.73850250e+00 4.74447393e+00 4.74727678e+00 4.75323200e+00 4.75629759e+00 4.76022291e+00 4.76288843e+00 4.76656723e+00 4.76971340e+00 4.77389956e+00 4.77790022e+00 4.78260612e+00 4.78935480e+00 4.79118204e+00 4.79445791e+00 4.79935884e+00 4.80399084e+00 4.81067944e+00 4.81597853e+00 4.82027340e+00 4.82851124e+00 4.83291149e+00 4.83718395e+00 4.84025431e+00 4.84757614e+00 4.85196209e+00 4.85471869e+00 4.86060381e+00 4.86399984e+00 4.87358475e+00 4.87777328e+00 4.88301134e+00 4.88718033e+00 4.89117527e+00 4.89553404e+00 4.90027666e+00 4.90414858e+00 4.90861130e+00 4.91173553e+00 4.91584539e+00 4.91869354e+00 4.92307520e+00 4.92727089e+00 4.93170166e+00 